{"learner":{"attributes":{"scikit_learn":"{\"_estimator_type\": \"classifier\"}"},"feature_names":["Time","Amount","V1","V2","V3","V4","V5","V6","V7","V8","V9","V10","V11","V12","V13","V14","V15","V16","V17","V18","V19","V20","V21","V22","V23","V24","V25","V26","V27","V28"],"feature_types":["float","float","float","float","float","float","float","float","float","float","float","float","float","float","float","float","float","float","float","float","float","float","float","float","float","float","float","float","float","float"],"gradient_booster":{"model":{"cats":{"enc":[],"feature_segments":[],"sorted_idx":[]},"gbtree_model_param":{"num_parallel_tree":"1","num_trees":"500"},"iteration_indptr":[0,1,2,3,4,5,6,7,8,9,10,11,12,13,14,15,16,17,18,19,20,21,22,23,24,25,26,27,28,29,30,31,32,33,34,35,36,37,38,39,40,41,42,43,44,45,46,47,48,49,50,51,52,53,54,55,56,57,58,59,60,61,62,63,64,65,66,67,68,69,70,71,72,73,74,75,76,77,78,79,80,81,82,83,84,85,86,87,88,89,90,91,92,93,94,95,96,97,98,99,100,101,102,103,104,105,106,107,108,109,110,111,112,113,114,115,116,117,118,119,120,121,122,123,124,125,126,127,128,129,130,131,132,133,134,135,136,137,138,139,140,141,142,143,144,145,146,147,148,149,150,151,152,153,154,155,156,157,158,159,160,161,162,163,164,165,166,167,168,169,170,171,172,173,174,175,176,177,178,179,180,181,182,183,184,185,186,187,188,189,190,191,192,193,194,195,196,197,198,199,200,201,202,203,204,205,206,207,208,209,210,211,212,213,214,215,216,217,218,219,220,221,222,223,224,225,226,227,228,229,230,231,232,233,234,235,236,237,238,239,240,241,242,243,244,245,246,247,248,249,250,251,252,253,254,255,256,257,258,259,260,261,262,263,264,265,266,267,268,269,270,271,272,273,274,275,276,277,278,279,280,281,282,283,284,285,286,287,288,289,290,291,292,293,294,295,296,297,298,299,300,301,302,303,304,305,306,307,308,309,310,311,312,313,314,315,316,317,318,319,320,321,322,323,324,325,326,327,328,329,330,331,332,333,334,335,336,337,338,339,340,341,342,343,344,345,346,347,348,349,350,351,352,353,354,355,356,357,358,359,360,361,362,363,364,365,366,367,368,369,370,371,372,373,374,375,376,377,378,379,380,381,382,383,384,385,386,387,388,389,390,391,392,393,394,395,396,397,398,399,400,401,402,403,404,405,406,407,408,409,410,411,412,413,414,415,416,417,418,419,420,421,422,423,424,425,426,427,428,429,430,431,432,433,434,435,436,437,438,439,440,441,442,443,444,445,446,447,448,449,450,451,452,453,454,455,456,457,458,459,460,461,462,463,464,465,466,467,468,469,470,471,472,473,474,475,476,477,478,479,480,481,482,483,484,485,486,487,488,489,490,491,492,493,494,495,496,497,498,499,500],"tree_info":[0,0,0,0,0,0,0,0,0,0,0,0,0,0,0,0,0,0,0,0,0,0,0,0,0,0,0,0,0,0,0,0,0,0,0,0,0,0,0,0,0,0,0,0,0,0,0,0,0,0,0,0,0,0,0,0,0,0,0,0,0,0,0,0,0,0,0,0,0,0,0,0,0,0,0,0,0,0,0,0,0,0,0,0,0,0,0,0,0,0,0,0,0,0,0,0,0,0,0,0,0,0,0,0,0,0,0,0,0,0,0,0,0,0,0,0,0,0,0,0,0,0,0,0,0,0,0,0,0,0,0,0,0,0,0,0,0,0,0,0,0,0,0,0,0,0,0,0,0,0,0,0,0,0,0,0,0,0,0,0,0,0,0,0,0,0,0,0,0,0,0,0,0,0,0,0,0,0,0,0,0,0,0,0,0,0,0,0,0,0,0,0,0,0,0,0,0,0,0,0,0,0,0,0,0,0,0,0,0,0,0,0,0,0,0,0,0,0,0,0,0,0,0,0,0,0,0,0,0,0,0,0,0,0,0,0,0,0,0,0,0,0,0,0,0,0,0,0,0,0,0,0,0,0,0,0,0,0,0,0,0,0,0,0,0,0,0,0,0,0,0,0,0,0,0,0,0,0,0,0,0,0,0,0,0,0,0,0,0,0,0,0,0,0,0,0,0,0,0,0,0,0,0,0,0,0,0,0,0,0,0,0,0,0,0,0,0,0,0,0,0,0,0,0,0,0,0,0,0,0,0,0,0,0,0,0,0,0,0,0,0,0,0,0,0,0,0,0,0,0,0,0,0,0,0,0,0,0,0,0,0,0,0,0,0,0,0,0,0,0,0,0,0,0,0,0,0,0,0,0,0,0,0,0,0,0,0,0,0,0,0,0,0,0,0,0,0,0,0,0,0,0,0,0,0,0,0,0,0,0,0,0,0,0,0,0,0,0,0,0,0,0,0,0,0,0,0,0,0,0,0,0,0,0,0,0,0,0,0,0,0,0,0,0,0,0,0,0,0,0,0,0,0,0,0,0,0,0,0,0,0,0,0,0,0,0,0,0,0,0,0,0,0,0,0,0,0,0,0,0,0,0,0,0,0,0,0,0,0,0,0,0,0,0,0,0,0,0,0,0],"trees":[{"base_weights":[-3.1242475E-1,4.9962373E0,-1.023412E0,5.0613375E0,-6.0960528E-2,3.9342473E0,-1.0778633E0,5.0968676E0,4.0365996E0,4.872808E0,-6.1161082E-2,-1.1390847E0,-1.5486737E-1,2.5498044E-1,-4.174081E-2,-5.954243E-2,4.8603415E0,-5.4306556E-2,4.99984E0,-1.362828E-1,-1.160458E0,-5.9872466E-1,3.04685E0,4.960468E0,-4.3652304E-2,2.519194E-1,-4.174081E-2,3.474138E0,-6.160015E-1,-1.1745031E0,2.0317635E-1,3.0723693E0,-7.2978836E-1,3.8883183E0,-6.0815185E-2,2.5180036E-1,-3.938881E-2,2.2394018E-1,-5.8215797E-2,7.2057806E-2,-5.25767E-2,-4.300679E-2,-6.049362E-2,-1.3320765E-2,1.9492167E-1,-5.8975637E-2,2.3284815E-1,-4.7285166E-2,3.2055028E-2,2.1737202E-1,-5.905048E-2],"categories":[],"categories_nodes":[],"categories_segments":[],"categories_sizes":[],"default_left":[0,0,0,0,0,0,0,0,0,0,0,0,0,0,0,0,0,0,0,0,0,0,0,0,0,0,0,0,0,0,0,0,0,0,0,0,0,0,0,0,0,0,0,0,0,0,0,0,0,0,0],"id":0,"left_children":[1,3,5,7,-1,9,11,13,15,17,-1,19,21,-1,-1,-1,23,-1,25,27,29,31,33,35,-1,-1,-1,37,39,41,43,45,47,49,-1,-1,-1,-1,-1,-1,-1,-1,-1,-1,-1,-1,-1,-1,-1,-1,-1],"loss_changes":[1.5820748E5,2.0093984E3,9.982969E3,1.5782031E2,0E0,1.9509146E3,2.065957E3,8.119531E1,7.3349805E2,2.6290576E2,0E0,7.3477734E2,3.2356313E3,0E0,0E0,0E0,8.825122E1,0E0,7.915137E1,1.2434803E3,6.432539E2,9.642182E2,9.991987E2,6.641992E1,0E0,0E0,0E0,3.976491E2,5.6910815E2,3.6846094E2,5.964545E2,4.7112775E2,5.722407E2,5.4453955E2,0E0,0E0,0E0,0E0,0E0,0E0,0E0,0E0,0E0,0E0,0E0,0E0,0E0,0E0,0E0,0E0,0E0],"parents":[2147483647,0,0,1,1,2,2,3,3,5,5,6,6,7,7,8,8,9,9,11,11,12,12,16,16,18,18,19,19,20,20,21,21,22,22,23,23,27,27,28,28,29,29,30,30,31,31,32,32,33,33],"right_children":[2,4,6,8,-1,10,12,14,16,18,-1,20,22,-1,-1,-1,24,-1,26,28,30,32,34,36,-1,-1,-1,38,40,42,44,46,48,50,-1,-1,-1,-1,-1,-1,-1,-1,-1,-1,-1,-1,-1,-1,-1,-1,-1],"split_conditions":[-3.6156354E0,5.767415E-1,-1.6137081E0,7.6753706E-1,-6.0960528E-2,-8.570009E-1,2.4474049E0,1.9360064E0,3.5906222E0,6.132036E-1,-6.1161082E-2,-9.853448E-1,1.4601418E0,2.5498044E-1,-4.174081E-2,-5.954243E-2,1.8975968E0,-5.4306556E-2,1.1664499E0,-1.5605403E0,2.4990346E0,-2.187939E0,2.6820996E-1,1.46324E5,-4.3652304E-2,2.519194E-1,-4.174081E-2,-4.8294455E-1,-9.517141E-1,-9.9395156E-1,1.7192266E0,4.4780057E-3,2.1930782E-1,-3.2709396E-1,-6.0815185E-2,2.5180036E-1,-3.938881E-2,2.2394018E-1,-5.8215797E-2,7.2057806E-2,-5.25767E-2,-4.300679E-2,-6.049362E-2,-1.3320765E-2,1.9492167E-1,-5.8975637E-2,2.3284815E-1,-4.7285166E-2,3.2055028E-2,2.1737202E-1,-5.905048E-2],"split_indices":[15,11,18,8,0,13,5,17,5,5,0,21,18,0,0,0,2,0,17,14,8,15,11,0,0,0,0,7,26,15,18,22,29,15,0,0,0,0,0,0,0,0,0,0,0,0,0,0,0,0,0],"split_type":[0,0,0,0,0,0,0,0,0,0,0,0,0,0,0,0,0,0,0,0,0,0,0,0,0,0,0,0,0,0,0,0,0,0,0,0,0,0,0,0,0,0,0,0,0,0,0,0,0,0,0],"sum_hessian":[4.191367E4,4.9497573E3,3.6963914E4,4.898635E3,5.1122482E1,4.0080026E2,3.6563113E4,4.7306387E3,1.6799634E2,3.3913867E2,6.166158E1,3.428856E4,2.2745574E3,4.7285938E3,2.0448995E0,2.2808493E1,1.4518785E2,6.921198E0,3.322175E2,7.157148E2,3.3572844E4,1.9983386E3,2.7621872E2,1.4282835E2,2.3594992E0,3.3017258E2,2.0448995E0,8.321167E1,6.325031E2,3.3230715E4,3.4212738E2,6.811088E1,1.9302277E3,2.3075902E2,4.5459686E1,1.4109805E2,1.7302995E0,6.8425476E1,1.4786196E1,1.1010996E2,5.223931E2,3.3632302E3,2.9867486E4,3.043754E2,3.7751987E1,1.8561394E1,4.9549484E1,1.6678513E3,2.623763E2,2.1172572E2,1.9033295E1],"tree_param":{"num_deleted":"0","num_feature":"30","num_nodes":"51","size_leaf_vector":"1"}},{"base_weights":[-3.0310425E-1,3.9840617E0,-1.0249095E0,4.1636534E0,1.4591427E0,2.9958708E0,-1.0591366E0,2.0868936E-1,-5.6118187E-2,-6.9287556E-1,3.2586424E0,3.9493268E0,-6.0340475E-2,3.1278723E-1,-1.1025152E0,1.9838677E-1,-6.1344203E-2,3.9647121E0,-5.9839994E-2,-5.3848583E-2,4.0916557E0,-2.2997825E-1,2.7789183E0,-1.1461989E0,-4.2081037E-1,4.084677E0,-5.0341703E-2,2.0647946E-1,-3.870506E-2,-7.070855E-1,2.4718947E0,-6.0119074E-2,3.5792353E0,-1.95678E-1,-1.1661911E0,-7.097601E-1,2.7722375E0,2.065868E-1,-3.8666453E-2,2.1755491E-1,-4.1432735E-2,2.0374289E-1,-6.0213644E-2,-5.7495546E-2,1.9698273E-1,1.4963482E-1,-3.56615E-2,-5.8751192E-2,-1.1503114E-2,-4.629734E-2,3.013027E-2,1.8432751E-1,-6.0280778E-2],"categories":[],"categories_nodes":[],"categories_segments":[],"categories_sizes":[],"default_left":[0,0,0,0,0,0,0,0,0,0,0,0,0,0,0,0,0,0,0,0,0,0,0,0,0,0,0,0,0,0,0,0,0,0,0,0,0,0,0,0,0,0,0,0,0,0,0,0,0,0,0,0,0],"id":1,"left_children":[1,3,5,7,9,11,13,-1,-1,15,17,19,-1,21,23,-1,-1,25,-1,-1,27,29,31,33,35,37,-1,-1,-1,39,41,-1,43,45,47,49,51,-1,-1,-1,-1,-1,-1,-1,-1,-1,-1,-1,-1,-1,-1,-1,-1],"loss_changes":[1.2848985E5,2.7071484E3,4.8939453E3,3.03875E2,1.5468937E3,1.2078064E3,2.0974922E3,0E0,0E0,4.5899185E2,6.8865576E2,1.7963794E2,0E0,1.4473829E3,1.0167539E3,0E0,0E0,1.1617432E2,0E0,0E0,4.7201416E1,1.1449044E3,6.257814E2,6.098008E2,1.9013689E3,4.5183105E1,0E0,0E0,0E0,4.675519E2,7.90499E2,0E0,2.817671E2,1.0953275E3,2.596953E2,5.36395E2,6.2652136E2,0E0,0E0,0E0,0E0,0E0,0E0,0E0,0E0,0E0,0E0,0E0,0E0,0E0,0E0,0E0,0E0],"parents":[2147483647,0,0,1,1,2,2,3,3,4,4,5,5,6,6,9,9,10,10,11,11,13,13,14,14,17,17,20,20,21,21,22,22,23,23,24,24,25,25,29,29,30,30,32,32,33,33,34,34,35,35,36,36],"right_children":[2,4,6,8,10,12,14,-1,-1,16,18,20,-1,22,24,-1,-1,26,-1,-1,28,30,32,34,36,38,-1,-1,-1,40,42,-1,44,46,48,50,52,-1,-1,-1,-1,-1,-1,-1,-1,-1,-1,-1,-1,-1,-1,-1,-1],"split_conditions":[-3.0454953E0,-1.4160796E0,-1.6137081E0,5.767415E-1,2.983501E0,-8.570009E-1,-1.7859976E0,2.0868936E-1,-5.6118187E-2,-1.5656409E0,5.2214855E-1,1.3935225E0,-6.0340475E-2,2.6378825E0,2.4474049E0,1.9838677E-1,-6.1344203E-2,-3.7772465E-2,-5.9839994E-2,-5.3848583E-2,1.1664499E0,1.84E2,-3.0432945E-1,-9.853448E-1,1.5295769E0,2.0129874E0,-5.0341703E-2,2.0647946E-1,-3.870506E-2,-2.0629342E0,-1.4045628E0,-6.0119074E-2,4.0920153E-1,-1.5605403E0,2.4990346E0,2.1930782E-1,-1.3017312E-1,2.065868E-1,-3.8666453E-2,2.1755491E-1,-4.1432735E-2,2.0374289E-1,-6.0213644E-2,-5.7495546E-2,1.9698273E-1,1.4963482E-1,-3.56615E-2,-5.8751192E-2,-1.1503114E-2,-4.629734E-2,3.013027E-2,1.8432751E-1,-6.0280778E-2],"split_indices":[15,13,18,11,18,13,15,0,0,12,16,5,0,5,5,0,0,22,0,0,17,1,22,21,18,3,0,0,0,23,11,0,2,14,8,29,11,0,0,0,0,0,0,0,0,0,0,0,0,0,0,0,0],"split_type":[0,0,0,0,0,0,0,0,0,0,0,0,0,0,0,0,0,0,0,0,0,0,0,0,0,0,0,0,0,0,0,0,0,0,0,0,0,0,0,0,0,0,0,0,0,0,0,0,0,0,0,0,0],"sum_hessian":[4.1519703E4,5.9824414E3,3.553726E4,5.584574E3,3.9786722E2,2.9922934E2,3.523803E4,5.5740986E3,1.04752445E1,1.8146661E2,2.164006E2,2.4394597E2,5.5283394E1,1.0798447E3,3.4158188E4,1.7993807E1,1.634728E2,1.8689313E2,2.9507475E1,6.536719E0,2.3740924E2,8.857981E2,1.9404666E2,3.2100506E4,2.0576807E3,1.8266379E2,4.2293525E0,2.3572282E2,1.6864158E0,7.5348334E2,1.3231473E2,3.239423E1,1.6165242E2,6.6148126E2,3.1439023E4,1.8876395E3,1.7004118E2,1.8105939E2,1.604388E0,1.6867758E1,7.366156E2,9.2062965E1,4.0251755E1,1.1292344E1,1.5036008E2,9.171142E1,5.6976984E2,3.1144904E4,2.941188E2,1.6209191E3,2.6672043E2,1.3832118E2,3.1719994E1],"tree_param":{"num_deleted":"0","num_feature":"30","num_nodes":"53","size_leaf_vector":"1"}},{"base_weights":[-2.9438403E-1,3.3403106E0,-1.0253714E0,3.562119E0,1.016917E0,2.4081936E0,-1.0494406E0,3.5713315E0,-5.6231167E-2,-6.3129246E-1,2.9728239E0,3.4154322E0,-5.9815824E-2,-1.095647E0,2.3470419E-2,3.5724459E0,-3.8530868E-2,2.4983728E0,-6.0896713E-2,-5.926175E-2,3.299494E0,3.5116794E0,-4.807603E-2,-1.1041808E0,1.0730505E0,-5.2449226E-1,2.238464E0,-3.3782635E-2,3.5733278E0,1.7219721E-1,-5.6032974E-2,3.4293458E0,-5.4711636E-2,-3.3814188E-2,1.7717648E-1,-1.7834105E-1,-1.1178136E0,-5.9853047E-2,2.52522E0,1.00377E0,-6.086294E-2,3.2118127E0,-6.0673457E-2,1.7902827E-1,1.627398E-1,-5.0357457E-2,1.7552623E-1,5.167312E-2,-6.095918E-2,-1.5877383E-2,-5.6714166E-2,1.7034072E-1,-5.8699775E-2,-6.048234E-2,1.0611317E-1,-6.0205746E-2,1.7622757E-1],"categories":[],"categories_nodes":[],"categories_segments":[],"categories_sizes":[],"default_left":[0,0,0,0,0,0,0,0,0,0,0,0,0,0,0,0,0,0,0,0,0,0,0,0,0,0,0,0,0,0,0,0,0,0,0,0,0,0,0,0,0,0,0,0,0,0,0,0,0,0,0,0,0,0,0,0,0],"id":2,"left_children":[1,3,5,7,9,11,13,15,-1,17,19,21,-1,23,25,27,-1,29,-1,-1,31,33,-1,35,37,39,41,-1,43,-1,-1,45,-1,-1,-1,47,49,-1,51,53,-1,55,-1,-1,-1,-1,-1,-1,-1,-1,-1,-1,-1,-1,-1,-1,-1],"loss_changes":[1.08872555E5,3.532289E3,2.8219531E3,2.744297E2,1.9339854E3,8.674011E2,1.6795742E3,3.3E1,0E0,6.017178E2,3.7644116E2,8.178052E1,0E0,6.023008E2,1.7001245E3,2.5828125E1,0E0,1.8112521E2,0E0,0E0,1.4897949E2,2.671582E1,0E0,4.0815625E2,4.2437927E2,1.1901455E3,9.3728455E2,0E0,2.75E0,0E0,0E0,9.2666016E1,0E0,0E0,0E0,5.9491534E2,4.198672E2,0E0,2.592637E2,8.710827E2,0E0,3.038877E2,0E0,0E0,0E0,0E0,0E0,0E0,0E0,0E0,0E0,0E0,0E0,0E0,0E0,0E0,0E0],"parents":[2147483647,0,0,1,1,2,2,3,3,4,4,5,5,6,6,7,7,9,9,10,10,11,11,13,13,14,14,15,15,17,17,20,20,21,21,23,23,24,24,25,25,26,26,28,28,31,31,35,35,36,36,38,38,39,39,41,41],"right_children":[2,4,6,8,10,12,14,16,-1,18,20,22,-1,24,26,28,-1,30,-1,-1,32,34,-1,36,38,40,42,-1,44,-1,-1,46,-1,-1,-1,48,50,-1,52,54,-1,56,-1,-1,-1,-1,-1,-1,-1,-1,-1,-1,-1,-1,-1,-1,-1],"split_conditions":[-2.635484E0,-1.4160796E0,-1.6137081E0,5.767415E-1,1.8959074E0,-6.56304E-1,1.4025605E0,2.1790798E0,-5.6231167E-2,-8.509862E-1,9.718627E-1,-8.570009E-1,-5.9815824E-2,4.77456E0,2.4474049E0,-7.0277715E-1,-3.8530868E-2,-4.4512385E-1,-6.0896713E-2,-5.926175E-2,1.74E1,-4.3555042E-1,-4.807603E-2,-1.7859976E0,1.4406234E-1,-2.996797E-1,-1.3017312E-1,-3.3782635E-2,2.1755762E0,1.7219721E-1,-5.6032974E-2,4.169859E-3,-5.4711636E-2,-3.3814188E-2,1.7717648E-1,-8.909076E-1,-9.853448E-1,-5.9853047E-2,9.596331E-1,1.6771162E-2,-6.086294E-2,5.302642E-2,-6.0673457E-2,1.7902827E-1,1.627398E-1,-5.0357457E-2,1.7552623E-1,5.167312E-2,-6.095918E-2,-1.5877383E-2,-5.6714166E-2,1.7034072E-1,-5.8699775E-2,-6.048234E-2,1.0611317E-1,-6.0205746E-2,1.7622757E-1],"split_indices":[15,13,18,11,5,6,18,8,0,23,19,13,0,5,5,12,0,16,0,0,1,24,0,15,29,9,11,0,18,0,0,29,0,0,0,4,21,0,7,22,0,29,0,0,0,0,0,0,0,0,0,0,0,0,0,0,0],"split_type":[0,0,0,0,0,0,0,0,0,0,0,0,0,0,0,0,0,0,0,0,0,0,0,0,0,0,0,0,0,0,0,0,0,0,0,0,0,0,0,0,0,0,0,0,0,0,0,0,0,0,0,0,0,0,0,0,0],"sum_hessian":[4.097476E4,6.8601934E3,3.4114566E4,6.2618564E3,5.983367E2,2.3678848E2,3.3877777E4,6.2498096E3,1.2047097E1,3.2507703E2,2.7325964E2,1.851132E2,5.167528E1,3.2479006E4,1.3987719E3,6.248383E3,1.4264646E0,5.0800976E1,2.7427606E2,1.9712944E1,2.535467E2,1.8132365E2,3.7895384E0,3.2352191E4,1.26815994E2,1.1219725E3,2.7679922E2,1.1378381E0,6.247245E3,4.0315758E1,1.0485216E1,2.464817E2,7.065002E0,1.2158766E0,1.8010779E2,4.6967078E2,3.188252E4,4.954312E1,7.727287E1,3.4981723E2,7.7215533E2,2.1597102E2,6.0828213E1,6.0984326E3,1.4881265E2,4.2240953E0,2.4225761E2,2.1701619E2,2.5265457E2,6.4333E2,3.123919E4,6.2465244E1,1.4807632E1,1.1740326E2,2.3241396E2,1.4095128E1,2.018759E2],"tree_param":{"num_deleted":"0","num_feature":"30","num_nodes":"57","size_leaf_vector":"1"}},{"base_weights":[-2.8626955E-1,2.960254E0,-1.0087887E0,3.141747E0,9.477574E-1,2.1779232E0,-1.0330206E0,3.1492608E0,-5.5522453E-2,-6.1644465E-1,2.651477E0,3.0212226E0,-5.914843E-2,-1.0797815E0,2.0062597E-2,3.150186E0,-3.786361E-2,2.2572541E0,-6.0234237E-2,-5.8491718E-2,2.9222846E0,3.1004808E0,-4.736112E-2,-1.1218841E0,-6.42856E-1,-5.0914186E-1,2.0246055E0,-3.3238288E-2,3.1509185E0,1.5252821E-1,-5.5294283E-2,3.0292304E0,-5.390851E-2,1.5636438E-1,-3.5570394E-2,-1.1346937E0,-1.938721E-2,4.1352385E-1,-8.643926E-1,9.260836E-1,-6.0214758E-2,2.8414123E0,-5.9963714E-2,1.5784511E-1,1.4431737E-1,1.549564E-1,-5.0750088E-2,-2.1714583E-2,-5.7534367E-2,8.124017E-2,-6.0906064E-2,8.4033154E-2,-4.1205604E-2,-5.4939307E-2,1.152333E-3,-5.9822407E-2,9.496338E-2,-5.9286278E-2,1.5487505E-1],"categories":[],"categories_nodes":[],"categories_segments":[],"categories_sizes":[],"default_left":[0,0,0,0,0,0,0,0,0,0,0,0,0,0,0,0,0,0,0,0,0,0,0,0,0,0,0,0,0,0,0,0,0,0,0,0,0,0,0,0,0,0,0,0,0,0,0,0,0,0,0,0,0,0,0,0,0,0,0],"id":3,"left_children":[1,3,5,7,9,11,13,15,-1,17,19,21,-1,23,25,27,-1,29,-1,-1,31,33,-1,35,37,39,41,-1,43,-1,-1,45,-1,-1,-1,47,49,51,53,55,-1,57,-1,-1,-1,-1,-1,-1,-1,-1,-1,-1,-1,-1,-1,-1,-1,-1,-1],"loss_changes":[9.457811E4,2.6779375E3,2.5489688E3,2.1859375E2,1.6235465E3,7.0989575E2,1.6118359E3,2.6671875E1,0E0,5.404536E2,3.0507397E2,6.568701E1,0E0,5.758008E2,1.4783275E3,2.0867188E1,0E0,1.4851184E2,0E0,0E0,1.198479E2,2.2235718E1,0E0,4.0366406E2,6.4554443E2,1.101125E3,7.698638E2,0E0,1.5234375E0,0E0,0E0,7.824414E1,0E0,0E0,0E0,3.1602344E2,6.5104297E2,7.519606E2,4.741399E2,7.465768E2,0E0,2.4347534E2,0E0,0E0,0E0,0E0,0E0,0E0,0E0,0E0,0E0,0E0,0E0,0E0,0E0,0E0,0E0,0E0,0E0],"parents":[2147483647,0,0,1,1,2,2,3,3,4,4,5,5,6,6,7,7,9,9,10,10,11,11,13,13,14,14,15,15,17,17,20,20,21,21,23,23,24,24,25,25,26,26,28,28,31,31,35,35,36,36,37,37,38,38,39,39,41,41],"right_children":[2,4,6,8,10,12,14,16,-1,18,20,22,-1,24,26,28,-1,30,-1,-1,32,34,-1,36,38,40,42,-1,44,-1,-1,46,-1,-1,-1,48,50,52,54,56,-1,58,-1,-1,-1,-1,-1,-1,-1,-1,-1,-1,-1,-1,-1,-1,-1,-1,-1],"split_conditions":[-2.635484E0,-1.4160796E0,-1.6137081E0,5.767415E-1,1.8959074E0,-6.56304E-1,1.4025605E0,2.1790798E0,-5.5522453E-2,-8.509862E-1,9.718627E-1,-8.570009E-1,-5.914843E-2,1.620582E0,2.4474049E0,-7.0277715E-1,-3.786361E-2,-4.4512385E-1,-6.0234237E-2,-5.8491718E-2,1.74E1,4.7424957E-3,-4.736112E-2,2.4990346E0,-3.3710298E-1,-2.996797E-1,-1.3017312E-1,-3.3238288E-2,2.1755762E0,1.5252821E-1,-5.5294283E-2,2.0129874E0,-5.390851E-2,1.5636438E-1,-3.5570394E-2,-1.6081004E0,-3.3360067E-1,-1.276142E-1,1.0057458E0,1.6771162E-2,-6.0214758E-2,5.302642E-2,-5.9963714E-2,1.5784511E-1,1.4431737E-1,1.549564E-1,-5.0750088E-2,-2.1714583E-2,-5.7534367E-2,8.124017E-2,-6.0906064E-2,8.4033154E-2,-4.1205604E-2,-5.4939307E-2,1.152333E-3,-5.9822407E-2,9.496338E-2,-5.9286278E-2,1.5487505E-1],"split_indices":[15,13,18,11,5,6,18,8,0,23,19,13,0,5,5,12,0,16,0,0,1,16,0,8,9,9,11,0,18,0,0,3,0,0,0,15,27,14,6,22,0,29,0,0,0,0,0,0,0,0,0,0,0,0,0,0,0,0,0],"split_type":[0,0,0,0,0,0,0,0,0,0,0,0,0,0,0,0,0,0,0,0,0,0,0,0,0,0,0,0,0,0,0,0,0,0,0,0,0,0,0,0,0,0,0,0,0,0,0,0,0,0,0,0,0,0,0,0,0,0,0],"sum_hessian":[4.031793E4,7.3388584E3,3.2979074E4,6.731252E3,6.0760614E2,2.4821051E2,3.2730861E4,6.7196377E3,1.1614565E1,3.1710608E2,2.9050006E2,1.985039E2,4.9706604E1,3.1339254E4,1.3916082E3,6.71824E3,1.3973843E0,5.3399406E1,2.6370667E2,1.9004957E1,2.7149512E2,1.9483144E2,3.6724749E0,2.8583361E4,2.755893E3,1.1015438E3,2.900644E2,1.1155915E0,6.7171245E3,4.328267E1,1.0116736E1,2.6466257E2,6.8325458E0,1.936492E2,1.1822326E0,2.8255045E4,3.2831567E2,4.776049E2,2.278288E3,3.5933087E2,7.4221295E2,2.315238E2,5.854058E1,6.5578774E3,1.5924738E2,2.6039575E2,4.2668185E0,6.3142444E2,2.7623621E4,1.3828616E2,1.9002951E2,2.3581276E2,2.4179213E2,1.8020789E3,4.7620935E2,1.12888855E2,2.4644203E2,1.3625472E1,2.1789833E2],"tree_param":{"num_deleted":"0","num_feature":"30","num_nodes":"59","size_leaf_vector":"1"}},{"base_weights":[-2.787839E-1,2.6744075E0,-9.9294925E-1,2.8283021E0,8.905131E-1,1.9977098E0,-1.0172946E0,2.8346598E0,-5.4846346E-2,-6.029181E-1,2.4055474E0,2.7246327E0,-5.8521915E-2,2.77938E-1,-1.0550811E0,2.8354568E0,-3.7216824E-2,2.067946E0,-5.9616487E-2,-5.7764333E-2,2.6372287E0,2.792247E0,-4.666805E-2,-1.6841117E-1,2.2476585E0,-1.1014026E0,-3.71375E-1,-3.270835E-2,2.8360882E0,1.3764234E-1,-5.4588944E-2,2.7283614E0,-5.3139467E-2,1.4086683E-1,-3.5108116E-2,-6.8117404E-1,1.4776503E0,-5.8727533E-2,2.873424E0,-1.5904137E-1,-1.1228718E0,-6.4445186E-1,2.0151055E0,1.4206618E-1,1.3022558E-1,-5.0286945E-2,1.394329E-1,-5.070403E-2,1.0955878E-1,1.1501958E-1,-5.9135642E-2,1.624406E-1,-5.717292E-2,1.2729846E-1,-3.3374574E-2,-5.662498E-2,-8.49327E-3,1.0106317E-2,-4.8471093E-2,-5.9265774E-2,1.284922E-1],"categories":[],"categories_nodes":[],"categories_segments":[],"categories_sizes":[],"default_left":[0,0,0,0,0,0,0,0,0,0,0,0,0,0,0,0,0,0,0,0,0,0,0,0,0,0,0,0,0,0,0,0,0,0,0,0,0,0,0,0,0,0,0,0,0,0,0,0,0,0,0,0,0,0,0,0,0,0,0,0,0],"id":4,"left_children":[1,3,5,7,9,11,13,15,-1,17,19,21,-1,23,25,27,-1,29,-1,-1,31,33,-1,35,37,39,41,-1,43,-1,-1,45,-1,-1,-1,47,49,-1,51,53,55,57,59,-1,-1,-1,-1,-1,-1,-1,-1,-1,-1,-1,-1,-1,-1,-1,-1,-1,-1],"loss_changes":[8.346573E4,2.1131953E3,2.322295E3,1.8014844E2,1.389561E3,5.9658594E2,1.5474121E3,2.23125E1,0E0,4.9009177E2,2.5445813E2,5.451538E1,0E0,7.888799E2,9.7235547E2,1.7457031E1,0E0,1.2498442E2,0E0,0E0,9.948413E1,2.0066895E1,0E0,6.1892786E2,3.583432E2,5.818047E2,1.2723934E3,0E0,1.1835938E0,0E0,0E0,6.58103E1,0E0,0E0,0E0,5.366522E2,3.84016E2,0E0,2.1545691E2,8.845694E2,2.5786328E2,4.8190186E2,3.5903082E2,0E0,0E0,0E0,0E0,0E0,0E0,0E0,0E0,0E0,0E0,0E0,0E0,0E0,0E0,0E0,0E0,0E0,0E0],"parents":[2147483647,0,0,1,1,2,2,3,3,4,4,5,5,6,6,7,7,9,9,10,10,11,11,13,13,14,14,15,15,17,17,20,20,21,21,23,23,24,24,25,25,26,26,28,28,31,31,35,35,36,36,38,38,39,39,40,40,41,41,42,42],"right_children":[2,4,6,8,10,12,14,16,-1,18,20,22,-1,24,26,28,-1,30,-1,-1,32,34,-1,36,38,40,42,-1,44,-1,-1,46,-1,-1,-1,48,50,-1,52,54,56,58,60,-1,-1,-1,-1,-1,-1,-1,-1,-1,-1,-1,-1,-1,-1,-1,-1,-1,-1],"split_conditions":[-2.635484E0,-1.4160796E0,-1.6137081E0,5.767415E-1,1.8959074E0,-6.56304E-1,-1.7859976E0,2.1790798E0,-5.4846346E-2,-8.509862E-1,9.718627E-1,-8.570009E-1,-5.8521915E-2,1.84E2,2.4474049E0,-7.0277715E-1,-3.7216824E-2,-4.4512385E-1,-5.9616487E-2,-5.7764333E-2,1.74E1,1.1664499E0,-4.666805E-2,1.3515254E0,-3.7772465E-2,-9.853448E-1,1.5295769E0,-3.270835E-2,2.1755762E0,1.3764234E-1,-5.4588944E-2,4.169859E-3,-5.3139467E-2,1.4086683E-1,-3.5108116E-2,1.66793E5,-1.152236E-1,-5.8727533E-2,-1.3659415E-1,-1.5605403E0,2.4990346E0,-1.3446109E-1,5.302642E-2,1.4206618E-1,1.3022558E-1,-5.0286945E-2,1.394329E-1,-5.070403E-2,1.0955878E-1,1.1501958E-1,-5.9135642E-2,1.624406E-1,-5.717292E-2,1.2729846E-1,-3.3374574E-2,-5.662498E-2,-8.49327E-3,1.0106317E-2,-4.8471093E-2,-5.9265774E-2,1.284922E-1],"split_indices":[15,13,18,11,5,6,15,8,0,23,19,13,0,1,5,12,0,16,0,0,1,17,0,5,22,21,18,0,18,0,0,29,0,0,0,0,21,0,27,14,8,9,29,0,0,0,0,0,0,0,0,0,0,0,0,0,0,0,0,0,0],"split_type":[0,0,0,0,0,0,0,0,0,0,0,0,0,0,0,0,0,0,0,0,0,0,0,0,0,0,0,0,0,0,0,0,0,0,0,0,0,0,0,0,0,0,0,0,0,0,0,0,0,0,0,0,0,0,0,0,0,0,0,0,0],"sum_hessian":[3.957246E4,7.7056367E3,3.1866822E4,7.093134E3,6.125026E2,2.5666263E2,3.161016E4,7.081941E3,1.1192879E1,3.0875363E2,3.0374902E2,2.0887648E2,4.7786156E1,8.958569E2,3.0714303E4,7.0805723E3,1.368694E0,5.5364784E1,2.5338884E2,1.8312216E1,2.854368E2,2.0531807E2,3.558415E0,7.3110016E2,1.647567E2,2.8764852E4,1.9494513E3,1.0937402E0,7.0794785E3,4.560766E1,9.757128E0,2.788317E2,6.6051044E0,2.0404678E2,1.2712808E0,5.5789655E2,1.7320358E2,2.5333727E1,1.3942296E2,6.409178E2,2.8123934E4,1.7499414E3,1.9950992E2,6.911949E3,1.6752946E2,4.1817555E0,2.7464993E2,5.005317E2,5.7364872E1,1.3239465E2,4.080894E1,1.2768197E2,1.1740993E1,1.0077522E2,5.401425E2,2.7842467E4,2.8146674E2,4.8551248E2,1.2644288E3,2.9305082E1,1.7020483E2],"tree_param":{"num_deleted":"0","num_feature":"30","num_nodes":"61","size_leaf_vector":"1"}},{"base_weights":[-2.718621E-1,2.451321E0,-9.7782826E-1,2.585289E0,8.4225357E-1,-1.0567052E0,-8.3955556E-2,2.590816E0,-5.4199666E-2,-5.905514E-1,2.210956E0,1.6745916E-2,-1.083821E0,1.6593664E0,-5.572415E-1,2.5915213E0,-3.658932E-2,1.9151354E0,-5.9039634E-2,-5.707555E-2,2.4138823E0,1.2861423E0,-6.031866E-2,-1.2981507E-1,-1.1090468E0,-6.060025E-2,2.2280865E0,7.531341E-1,-8.325888E-1,-3.2192156E-2,2.5920806E0,1.2596938E-1,-5.391372E-2,2.49353E0,-5.2401226E-2,-6.001795E-2,2.2299092E0,-8.318291E-1,1.9062207E0,-1.1190293E0,-1.4205365E-1,1.9679967E-1,2.5657694E0,2.0315957E0,-6.381871E-1,-1.1132089E0,2.098346E-1,1.298428E-1,1.1906885E-1,1.2743138E-1,-5.0725605E-2,-5.940572E-2,1.4741985E-1,-6.000203E-2,9.964073E-2,1.333176E-1,-5.879746E-2,1.4764963E-4,-5.630551E-2,1.211821E-1,-6.0523935E-2,1.2680219E-1,-6.0203057E-2,1.3000022E-1,-4.9327396E-2,1.4001054E-1,-6.0177464E-2,1.2544855E-1,-6.0019594E-2,-5.9531815E-2,8.7556094E-2,-3.8107265E-2,9.640745E-2],"categories":[],"categories_nodes":[],"categories_segments":[],"categories_sizes":[],"default_left":[0,0,0,0,0,0,0,0,0,0,0,0,0,0,0,0,0,0,0,0,0,0,0,0,0,0,0,0,0,0,0,0,0,0,0,0,0,0,0,0,0,0,0,0,0,0,0,0,0,0,0,0,0,0,0,0,0,0,0,0,0,0,0,0,0,0,0,0,0,0,0,0,0],"id":5,"left_children":[1,3,5,7,9,11,13,15,-1,17,19,21,23,25,27,29,-1,31,-1,-1,33,35,-1,37,39,-1,41,43,45,-1,47,-1,-1,49,-1,-1,51,53,55,57,59,61,63,65,67,69,71,-1,-1,-1,-1,-1,-1,-1,-1,-1,-1,-1,-1,-1,-1,-1,-1,-1,-1,-1,-1,-1,-1,-1,-1,-1,-1],"loss_changes":[7.4509305E4,1.7178086E3,2.1699219E3,1.5217969E2,1.2068668E3,8.232383E2,2.0609648E3,1.9128906E1,0E0,4.4761636E2,2.1678906E2,1.0849691E3,6.6370703E2,8.736682E2,7.0939703E2,1.49765625E1,0E0,1.0724844E2,0E0,0E0,8.4500244E1,8.0736456E2,0E0,1.01890314E3,2.592539E2,0E0,3.050979E2,6.089631E2,4.7522668E2,0E0,1.21875E0,0E0,0E0,5.8753662E1,0E0,0E0,6.147831E2,5.535814E2,4.3138556E2,2.1132422E2,7.588099E2,2.1471468E2,4.901416E1,4.4665912E2,2.9380914E2,2.8585486E2,5.780881E2,0E0,0E0,0E0,0E0,0E0,0E0,0E0,0E0,0E0,0E0,0E0,0E0,0E0,0E0,0E0,0E0,0E0,0E0,0E0,0E0,0E0,0E0,0E0,0E0,0E0,0E0],"parents":[2147483647,0,0,1,1,2,2,3,3,4,4,5,5,6,6,7,7,9,9,10,10,11,11,12,12,13,13,14,14,15,15,17,17,20,20,21,21,23,23,24,24,26,26,27,27,28,28,30,30,33,33,36,36,37,37,38,38,39,39,40,40,41,41,42,42,43,43,44,44,45,45,46,46],"right_children":[2,4,6,8,10,12,14,16,-1,18,20,22,24,26,28,30,-1,32,-1,-1,34,36,-1,38,40,-1,42,44,46,-1,48,-1,-1,50,-1,-1,52,54,56,58,60,62,64,66,68,70,72,-1,-1,-1,-1,-1,-1,-1,-1,-1,-1,-1,-1,-1,-1,-1,-1,-1,-1,-1,-1,-1,-1,-1,-1,-1,-1],"split_conditions":[-2.635484E0,-1.4160796E0,2.1870494E0,5.767415E-1,1.8959074E0,-9.853448E-1,-1.3017312E-1,2.1790798E0,-5.4199666E-2,-8.509862E-1,9.718627E-1,-7.4986964E-2,-1.7859976E0,-1.1583376E0,-3.3710298E-1,-7.0277715E-1,-3.658932E-2,-4.4512385E-1,-5.9039634E-2,-5.707555E-2,1.74E1,-2.1592973E-1,-6.031866E-2,1.0624E2,2.4990346E0,-6.060025E-2,6.3544345E-1,-1.276142E-1,1.1232411E0,-3.2192156E-2,2.1755762E0,1.2596938E-1,-5.391372E-2,2.0129874E0,-5.2401226E-2,-6.001795E-2,-1.3903122E-1,1.66793E5,-9.746951E-1,-2.1597652E0,-5.366979E-1,-2.0208135E0,7.681329E-1,1.2032487E0,-2.1597652E0,1.2368379E0,2.6317087E-1,1.298428E-1,1.1906885E-1,1.2743138E-1,-5.0725605E-2,-5.940572E-2,1.4741985E-1,-6.000203E-2,9.964073E-2,1.333176E-1,-5.879746E-2,1.4764963E-4,-5.630551E-2,1.211821E-1,-6.0523935E-2,1.2680219E-1,-6.0203057E-2,1.3000022E-1,-4.9327396E-2,1.4001054E-1,-6.0177464E-2,1.2544855E-1,-6.0019594E-2,-5.9531815E-2,8.7556094E-2,-3.8107265E-2,9.640745E-2],"split_indices":[15,13,5,11,5,21,11,8,0,23,19,13,15,3,9,12,0,16,0,0,1,5,0,1,8,0,12,14,6,0,18,0,0,3,0,0,29,0,11,20,27,11,4,3,20,13,2,0,0,0,0,0,0,0,0,0,0,0,0,0,0,0,0,0,0,0,0,0,0,0,0,0,0],"split_type":[0,0,0,0,0,0,0,0,0,0,0,0,0,0,0,0,0,0,0,0,0,0,0,0,0,0,0,0,0,0,0,0,0,0,0,0,0,0,0,0,0,0,0,0,0,0,0,0,0,0,0,0,0,0,0,0,0,0,0,0,0,0,0,0,0,0,0,0,0,0,0,0,0],"sum_hessian":[3.8754723E4,7.978008E3,3.0776715E4,7.3642656E3,6.137422E2,2.8280969E4,2.4957466E3,7.353483E3,1.0782447E1,3.0012723E2,3.13615E2,6.9679816E2,2.758417E4,5.3235205E2,1.9633945E3,7.3521426E3,1.3404272E0,5.6791557E1,2.4333568E2,1.7635767E1,2.9597922E2,3.4190524E2,3.5489294E2,7.107465E2,2.6873424E4,8.782211E1,4.4452994E2,3.4062543E2,1.6227692E3,1.0722939E0,7.3510703E3,4.7384785E1,9.4067745E0,2.8959622E2,6.3829794E0,9.399329E1,2.4791196E2,5.289566E2,1.817899E2,2.6598684E4,2.747411E2,6.3590794E1,3.8093915E2,1.772725E2,1.6335294E2,1.2785231E3,3.44246E2,7.1770923E3,1.7397807E2,2.853874E2,4.208837E0,4.294733E1,2.0496463E2,4.684643E2,6.0492348E1,1.459342E2,3.5855694E1,1.6681715E2,2.6431865E4,8.040048E1,1.943406E2,2.3514492E1,4.0076298E1,3.7756845E2,3.3706846E0,1.4334955E2,3.392295E1,2.4233551E1,1.3911938E2,1.2454412E3,3.3081947E1,2.2022835E2,1.2401767E2],"tree_param":{"num_deleted":"0","num_feature":"30","num_nodes":"73","size_leaf_vector":"1"}},{"base_weights":[-2.6556477E-1,2.2722774E0,-9.635633E-1,2.3912761E0,8.009466E-1,-1.0431784E0,-8.235342E-2,2.3961813E0,-5.3579565E-2,-5.792073E-1,2.0529082E0,1.3716065E-2,-1.0706803E0,1.5535582E0,-5.421782E-1,2.3968186E0,-3.598002E-2,1.7890632E0,-5.850021E-2,-5.642171E-2,2.2339025E0,1.1903656E0,-5.9701797E-2,-1.264292E-1,-1.0963551E0,-5.9926033E-2,2.0657852E0,7.0317173E-1,-8.1523955E-1,-3.1689096E-2,2.3973248E0,1.1656314E-1,-5.326569E-2,-5.287173E-2,2.3060346E0,-5.9382647E-2,2.0191743E0,-8.1439143E-1,1.7393441E0,-1.1065892E0,-1.3764179E-1,2.2423382E0,-5.8459707E-2,1.8321522E0,-6.239146E-1,-1.0999097E0,1.9711202E-1,1.20090894E-1,1.09996915E-1,1.177266E-1,-4.8503827E-2,-5.874872E-2,1.3130175E-1,-5.9409708E-2,8.929502E-2,1.2128551E-1,-5.9248544E-2,1.4029517E-4,-5.5693623E-2,1.070902E-1,-5.98798E-2,1.1673564E-1,-5.5840146E-2,1.2388299E-1,-5.9436012E-2,1.1454349E-1,-5.9399325E-2,-5.8977135E-2,7.8564964E-2,6.511515E-2,-5.967164E-2],"categories":[],"categories_nodes":[],"categories_segments":[],"categories_sizes":[],"default_left":[0,0,0,0,0,0,0,0,0,0,0,0,0,0,0,0,0,0,0,0,0,0,0,0,0,0,0,0,0,0,0,0,0,0,0,0,0,0,0,0,0,0,0,0,0,0,0,0,0,0,0,0,0,0,0,0,0,0,0,0,0,0,0,0,0,0,0,0,0,0,0],"id":6,"left_children":[1,3,5,7,9,11,13,15,-1,17,19,21,23,25,27,29,-1,31,-1,-1,33,35,-1,37,39,-1,41,43,45,-1,47,-1,-1,-1,49,-1,51,53,55,57,59,61,-1,63,65,67,69,-1,-1,-1,-1,-1,-1,-1,-1,-1,-1,-1,-1,-1,-1,-1,-1,-1,-1,-1,-1,-1,-1,-1,-1],"loss_changes":[6.710166E4,1.4287461E3,2.0842246E3,1.3096484E2,1.0602563E3,7.92E2,1.8534457E3,1.6714844E1,0E0,4.11091E2,1.8770337E2,9.848465E2,6.436758E2,7.6458496E2,6.545651E2,1.3097656E1,0E0,9.3419876E1,0E0,0E0,7.476099E1,6.94236E2,0E0,9.051799E2,2.5350586E2,0E0,2.6315308E2,5.201234E2,4.5491516E2,0E0,1.4101562E0,0E0,0E0,0E0,4.9696533E1,0E0,5.0837E2,5.0279407E2,3.8422943E2,2.066875E2,6.650728E2,1.3693335E2,0E0,3.6841125E2,2.657376E2,2.638462E2,5.350481E2,0E0,0E0,0E0,0E0,0E0,0E0,0E0,0E0,0E0,0E0,0E0,0E0,0E0,0E0,0E0,0E0,0E0,0E0,0E0,0E0,0E0,0E0,0E0,0E0],"parents":[2147483647,0,0,1,1,2,2,3,3,4,4,5,5,6,6,7,7,9,9,10,10,11,11,12,12,13,13,14,14,15,15,17,17,20,20,21,21,23,23,24,24,26,26,27,27,28,28,30,30,34,34,36,36,37,37,38,38,39,39,40,40,41,41,43,43,44,44,45,45,46,46],"right_children":[2,4,6,8,10,12,14,16,-1,18,20,22,24,26,28,30,-1,32,-1,-1,34,36,-1,38,40,-1,42,44,46,-1,48,-1,-1,-1,50,-1,52,54,56,58,60,62,-1,64,66,68,70,-1,-1,-1,-1,-1,-1,-1,-1,-1,-1,-1,-1,-1,-1,-1,-1,-1,-1,-1,-1,-1,-1,-1,-1],"split_conditions":[-2.635484E0,-1.4160796E0,2.1870494E0,5.767415E-1,1.8959074E0,-9.853448E-1,-1.3017312E-1,2.1790798E0,-5.3579565E-2,-8.509862E-1,9.718627E-1,-7.4986964E-2,-1.7859976E0,-1.1583376E0,-3.3710298E-1,-7.0277715E-1,-3.598002E-2,-4.4512385E-1,-5.850021E-2,-5.642171E-2,5.0176145E-3,-2.1592973E-1,-5.9701797E-2,1.0624E2,2.4990346E0,-5.9926033E-2,7.681329E-1,-1.276142E-1,1.1232411E0,-3.1689096E-2,2.1755762E0,1.1656314E-1,-5.326569E-2,-5.287173E-2,1.74E1,-5.9382647E-2,-1.3903122E-1,1.66793E5,-2.0772192E-1,-2.1597652E0,-5.366979E-1,8.01032E-1,-5.8459707E-2,1.2032487E0,-2.1597652E0,1.2368379E0,6.1827168E-2,1.20090894E-1,1.09996915E-1,1.177266E-1,-4.8503827E-2,-5.874872E-2,1.3130175E-1,-5.9409708E-2,8.929502E-2,1.2128551E-1,-5.9248544E-2,1.4029517E-4,-5.5693623E-2,1.070902E-1,-5.98798E-2,1.1673564E-1,-5.5840146E-2,1.2388299E-1,-5.9436012E-2,1.1454349E-1,-5.9399325E-2,-5.8977135E-2,7.8564964E-2,6.511515E-2,-5.967164E-2],"split_indices":[15,13,5,11,5,21,11,8,0,23,19,13,15,3,9,12,0,16,0,0,29,5,0,1,8,0,4,14,6,0,18,0,0,0,1,0,29,0,9,20,27,15,0,3,20,13,4,0,0,0,0,0,0,0,0,0,0,0,0,0,0,0,0,0,0,0,0,0,0,0,0],"split_type":[0,0,0,0,0,0,0,0,0,0,0,0,0,0,0,0,0,0,0,0,0,0,0,0,0,0,0,0,0,0,0,0,0,0,0,0,0,0,0,0,0,0,0,0,0,0,0,0,0,0,0,0,0,0,0,0,0,0,0,0,0,0,0,0,0,0,0,0,0,0,0],"sum_hessian":[3.7878125E4,8.170149E3,2.9707975E4,7.558227E3,6.119217E2,2.7246168E4,2.461806E3,7.5478438E3,1.0383566E1,2.913152E2,3.206065E2,6.910165E2,2.6555152E4,5.396221E2,1.9221838E3,7.5465312E3,1.3126118E0,5.7758015E1,2.3355717E2,1.6976435E1,3.0363007E2,3.5002237E2,3.4099408E2,7.03095E2,2.5852057E4,8.446594E1,4.5515616E2,3.4538992E2,1.576794E3,1.0512601E0,7.54548E3,4.8692047E1,9.0659685E0,6.2186227E0,2.9741144E2,9.035186E1,2.5967053E2,5.140968E2,1.889982E2,2.5578854E4,2.7320453E2,4.3189197E2,2.3264189E1,1.8641885E2,1.5897105E2,1.230652E3,3.46142E2,7.3666235E3,1.7885623E2,2.933502E2,4.0612617E0,4.1308933E1,2.1836159E2,4.499567E2,6.4140076E1,1.5320901E2,3.578919E1,1.6683414E2,2.541202E4,8.639349E1,1.8681104E2,4.2062985E2,1.126213E1,1.5374586E2,3.267298E1,2.5279663E1,1.3369139E2,1.1955685E3,3.50834E1,1.9289471E2,1.532473E2],"tree_param":{"num_deleted":"0","num_feature":"30","num_nodes":"71","size_leaf_vector":"1"}},{"base_weights":[-2.5973424E-1,2.125399E0,-9.4994766E-1,2.232799E0,7.6516175E-1,-1.0302423E0,-8.081803E-2,2.237224E0,-5.2983444E-2,-5.6876886E-1,1.9219056E0,1.12181E-2,-1.0580912E0,1.4626465E0,-5.2793044E-1,2.2378094E0,-3.538793E-2,1.683192E0,-5.799516E-2,-5.579954E-2,2.0856855E0,1.1097358E0,-5.9125908E-2,-1.2318279E-1,-1.0841938E0,-5.9294846E-2,1.9288261E0,6.599591E-1,-7.9854125E-1,-3.1198595E-2,2.238275E0,-5.3760942E-2,1.0894324E-1,-5.2128654E-2,2.151019E0,-5.8787566E-2,1.848561E0,-7.977845E-1,1.6001831E0,-1.0946721E0,-1.3342471E-1,2.0879066E0,-5.779087E-2,1.6695788E0,-6.106538E-1,-1.0872992E0,1.8525349E-1,1.1213019E-1,1.0246047E-1,-5.501712E-2,1.0972488E-1,-5.813059E-2,1.1863108E-1,-5.8856547E-2,8.074034E-2,1.10128656E-1,-5.833295E-2,1.333091E-4,-5.5108435E-2,9.5832616E-2,-5.9278358E-2,1.0854637E-1,-5.5141844E-2,1.1140199E-1,-6.1474185E-2,1.0557498E-1,-5.8819152E-2,-5.845899E-2,7.104189E-2,5.9504118E-2,-5.9078332E-2],"categories":[],"categories_nodes":[],"categories_segments":[],"categories_sizes":[],"default_left":[0,0,0,0,0,0,0,0,0,0,0,0,0,0,0,0,0,0,0,0,0,0,0,0,0,0,0,0,0,0,0,0,0,0,0,0,0,0,0,0,0,0,0,0,0,0,0,0,0,0,0,0,0,0,0,0,0,0,0,0,0,0,0,0,0,0,0,0,0,0,0],"id":7,"left_children":[1,3,5,7,9,11,13,15,-1,17,19,21,23,25,27,29,-1,31,-1,-1,33,35,-1,37,39,-1,41,43,45,-1,47,-1,-1,-1,49,-1,51,53,55,57,59,61,-1,63,65,67,69,-1,-1,-1,-1,-1,-1,-1,-1,-1,-1,-1,-1,-1,-1,-1,-1,-1,-1,-1,-1,-1,-1,-1,-1],"loss_changes":[6.0843492E4,1.210082E3,2.0002578E3,1.1436719E2,9.400641E2,7.610469E2,1.6744314E3,1.4816406E1,0E0,3.792057E2,1.6459656E2,8.987465E2,6.235293E2,6.752069E2,6.052581E2,1.1621094E1,0E0,8.346344E1,0E0,0E0,6.556055E1,6.0484595E2,0E0,8.0959406E2,2.4753711E2,0E0,2.300116E2,4.4948743E2,4.3559015E2,0E0,1.6835938E0,0E0,0E0,0E0,4.536023E1,0E0,4.29E2,4.5982175E2,3.291283E2,2.0229297E2,5.892964E2,1.1932715E2,0E0,3.1856055E2,2.419862E2,2.4502307E2,4.802193E2,0E0,0E0,0E0,0E0,0E0,0E0,0E0,0E0,0E0,0E0,0E0,0E0,0E0,0E0,0E0,0E0,0E0,0E0,0E0,0E0,0E0,0E0,0E0,0E0],"parents":[2147483647,0,0,1,1,2,2,3,3,4,4,5,5,6,6,7,7,9,9,10,10,11,11,12,12,13,13,14,14,15,15,17,17,20,20,21,21,23,23,24,24,26,26,27,27,28,28,30,30,34,34,36,36,37,37,38,38,39,39,40,40,41,41,43,43,44,44,45,45,46,46],"right_children":[2,4,6,8,10,12,14,16,-1,18,20,22,24,26,28,30,-1,32,-1,-1,34,36,-1,38,40,-1,42,44,46,-1,48,-1,-1,-1,50,-1,52,54,56,58,60,62,-1,64,66,68,70,-1,-1,-1,-1,-1,-1,-1,-1,-1,-1,-1,-1,-1,-1,-1,-1,-1,-1,-1,-1,-1,-1,-1,-1],"split_conditions":[-2.635484E0,-1.4160796E0,2.1870494E0,5.767415E-1,1.8959074E0,-9.853448E-1,-1.3017312E-1,2.1790798E0,-5.2983444E-2,-8.509862E-1,9.718627E-1,-7.4986964E-2,-1.7859976E0,-1.1583376E0,-3.3710298E-1,-7.0277715E-1,-3.538793E-2,1.5712748E0,-5.799516E-2,-5.579954E-2,5.0176145E-3,-2.1592973E-1,-5.9125908E-2,1.0624E2,2.4990346E0,-5.9294846E-2,7.681329E-1,-1.276142E-1,1.1232411E0,-3.1198595E-2,2.1755762E0,-5.3760942E-2,1.0894324E-1,-5.2128654E-2,-2.0028193E0,-5.8787566E-2,-1.3903122E-1,1.66793E5,-9.746951E-1,-2.1597652E0,-5.366979E-1,8.01032E-1,-5.779087E-2,1.359267E-1,-2.1597652E0,1.2368379E0,6.1827168E-2,1.1213019E-1,1.0246047E-1,-5.501712E-2,1.0972488E-1,-5.813059E-2,1.1863108E-1,-5.8856547E-2,8.074034E-2,1.10128656E-1,-5.833295E-2,1.333091E-4,-5.5108435E-2,9.5832616E-2,-5.9278358E-2,1.0854637E-1,-5.5141844E-2,1.1140199E-1,-6.1474185E-2,1.0557498E-1,-5.8819152E-2,-5.845899E-2,7.104189E-2,5.9504118E-2,-5.9078332E-2],"split_indices":[15,13,5,11,5,21,11,8,0,23,19,13,15,3,9,12,0,19,0,0,29,5,0,1,8,0,4,14,6,0,18,0,0,0,20,0,29,0,11,20,27,15,0,28,20,13,4,0,0,0,0,0,0,0,0,0,0,0,0,0,0,0,0,0,0,0,0,0,0,0,0],"split_type":[0,0,0,0,0,0,0,0,0,0,0,0,0,0,0,0,0,0,0,0,0,0,0,0,0,0,0,0,0,0,0,0,0,0,0,0,0,0,0,0,0,0,0,0,0,0,0,0,0,0,0,0,0,0,0,0,0,0,0,0,0,0,0,0,0,0,0,0,0,0,0],"sum_hessian":[3.6956598E4,8.293863E3,2.8662736E4,7.686333E3,6.0752966E2,2.6238502E4,2.4242341E3,7.676337E3,9.996441E0,2.8239105E2,3.2513858E2,6.83364E2,2.5555137E4,5.4400793E2,1.8802262E3,7.6750513E3,1.2852715E0,5.8330433E1,2.2406062E2,1.633485E1,3.0880374E2,3.5591187E2,3.2745215E2,6.9427563E2,2.4860861E4,8.119042E1,4.628175E2,3.4859103E2,1.5316351E3,1.0306445E0,7.674021E3,8.706985E0,4.9623447E1,6.0114207E0,3.027923E2,8.68031E1,2.6910876E2,4.993464E2,1.9492921E2,2.458971E4,2.711518E2,4.4042703E2,2.2390482E1,1.9407025E2,1.545208E2,1.1840068E3,3.4762833E2,7.4916353E3,1.8238576E2,3.674877E0,2.9911743E2,3.9711872E1,2.2939688E2,4.3194168E2,6.7404724E1,1.6024501E2,3.46842E1,1.6685027E2,2.442286E4,9.168461E1,1.7946718E2,4.2956958E2,1.0857444E1,1.6291801E2,3.115224E1,2.6117464E1,1.2840334E2,1.1470928E3,3.6914093E1,2.0041841E2,1.4720992E2],"tree_param":{"num_deleted":"0","num_feature":"30","num_nodes":"71","size_leaf_vector":"1"}},{"base_weights":[-2.5431693E-1,2.002714E0,-9.369127E-1,2.10095E0,7.3358256E-1,-1.0129662E0,-2.4041042E-2,2.104995E0,-5.2408982E-2,-5.5906874E-1,1.810617E0,6.446282E-2,-1.0437827E0,-5.9678227E-1,1.114182E0,2.1055398E0,-3.4812152E-2,1.5919199E0,-5.752167E-2,-5.520607E-2,1.9604511E0,1.0944933E0,-5.8637917E-2,-4.0009233E-1,-1.0832657E0,-8.714115E-1,5.655192E-1,1.9646301E0,2.0493278E-1,-3.0720124E-2,2.105974E0,1.0255648E-1,-5.2310254E-2,2.02281E0,-5.140639E-2,-5.8229264E-2,1.7159187E0,3.795124E-1,-5.8461208E-2,-1.0943629E0,-1.2423365E-1,1.2094562E0,-1.0881445E0,1.8337128E0,-6.024432E-2,-5.5486735E-2,2.0840511E0,2.1876845E0,-7.6645935E-1,1.0551101E-1,9.608814E-2,1.0336866E-1,-5.0911773E-2,-5.7709467E-2,1.0760846E-1,7.137344E-2,-4.3447237E-2,-3.0542475E-3,-5.511575E-2,8.648052E-2,-5.870979E-2,1.0939165E-1,-5.8841534E-2,8.105453E-2,-5.8536988E-2,1.6333568E-1,3.3785023E-3,-5.7782944E-2,1.0575564E-1,-5.750361E-2,1.5769899E-1,-5.864212E-2,1.1623154E-1],"categories":[],"categories_nodes":[],"categories_segments":[],"categories_sizes":[],"default_left":[0,0,0,0,0,0,0,0,0,0,0,0,0,0,0,0,0,0,0,0,0,0,0,0,0,0,0,0,0,0,0,0,0,0,0,0,0,0,0,0,0,0,0,0,0,0,0,0,0,0,0,0,0,0,0,0,0,0,0,0,0,0,0,0,0,0,0,0,0,0,0,0,0],"id":8,"left_children":[1,3,5,7,9,11,13,15,-1,17,19,21,23,25,27,29,-1,31,-1,-1,33,35,-1,37,39,41,43,45,47,-1,49,-1,-1,51,-1,-1,53,55,-1,57,59,61,63,65,-1,-1,67,69,71,-1,-1,-1,-1,-1,-1,-1,-1,-1,-1,-1,-1,-1,-1,-1,-1,-1,-1,-1,-1,-1,-1,-1,-1],"loss_changes":[5.5469293E4,1.0407812E3,1.9191816E3,1.0103906E2,8.393733E2,8.473164E2,1.3872397E3,1.32890625E1,0E0,3.5094217E2,1.4572449E2,9.0672516E2,6.3006055E2,4.523585E2,5.5042847E2,1.0441406E1,0E0,7.4352325E1,0E0,0E0,6.041284E1,5.470154E2,0E0,8.610949E2,2.4861914E2,5.179055E2,6.110244E2,1.3740527E2,6.668988E2,0E0,2.0039062E0,0E0,0E0,4.3701904E1,0E0,0E0,3.8421997E2,9.34821E2,0E0,1.8978906E2,5.246498E2,2.559444E2,2.3415442E2,4.0063428E2,0E0,0E0,3.8122314E1,3.7075928E2,2.948542E2,0E0,0E0,0E0,0E0,0E0,0E0,0E0,0E0,0E0,0E0,0E0,0E0,0E0,0E0,0E0,0E0,0E0,0E0,0E0,0E0,0E0,0E0,0E0,0E0],"parents":[2147483647,0,0,1,1,2,2,3,3,4,4,5,5,6,6,7,7,9,9,10,10,11,11,12,12,13,13,14,14,15,15,17,17,20,20,21,21,23,23,24,24,25,25,26,26,27,27,28,28,30,30,33,33,36,36,37,37,39,39,40,40,41,41,42,42,43,43,46,46,47,47,48,48],"right_children":[2,4,6,8,10,12,14,16,-1,18,20,22,24,26,28,30,-1,32,-1,-1,34,36,-1,38,40,42,44,46,48,-1,50,-1,-1,52,-1,-1,54,56,-1,58,60,62,64,66,-1,-1,68,70,72,-1,-1,-1,-1,-1,-1,-1,-1,-1,-1,-1,-1,-1,-1,-1,-1,-1,-1,-1,-1,-1,-1,-1,-1],"split_conditions":[-2.635484E0,-1.4160796E0,2.4474049E0,5.767415E-1,1.8959074E0,-9.853448E-1,6.3544345E-1,2.1790798E0,-5.2408982E-2,-8.509862E-1,9.718627E-1,-7.4986964E-2,-1.3363411E0,1.3904194E0,-1.3017312E-1,-7.0277715E-1,-3.4812152E-2,-4.4512385E-1,-5.752167E-2,-5.520607E-2,1.74E1,-2.1592973E-1,-5.8637917E-2,-1.1814422E-1,2.4990346E0,-8.2312953E-1,9.51E0,-1.4085292E0,-5.9687495E-1,-3.0720124E-2,2.1755762E0,1.0255648E-1,-5.2310254E-2,2.0129874E0,-5.140639E-2,-5.8229264E-2,-1.3903122E-1,-7.8156966E-1,-5.8461208E-2,-2.1597652E0,-5.366979E-1,2.96552E0,-2.187939E0,-1.1212862E0,-6.024432E-2,-5.5486735E-2,-7.5105906E-1,-9.5316654E-1,1.1736002E0,1.0551101E-1,9.608814E-2,1.0336866E-1,-5.0911773E-2,-5.7709467E-2,1.0760846E-1,7.137344E-2,-4.3447237E-2,-3.0542475E-3,-5.511575E-2,8.648052E-2,-5.870979E-2,1.0939165E-1,-5.8841534E-2,8.105453E-2,-5.8536988E-2,1.6333568E-1,3.3785023E-3,-5.7782944E-2,1.0575564E-1,-5.750361E-2,1.5769899E-1,-5.864212E-2,1.1623154E-1],"split_indices":[15,13,5,11,5,21,12,8,0,23,19,13,15,6,11,12,0,16,0,0,1,5,0,27,8,22,1,3,19,0,18,0,0,3,0,0,29,11,0,20,27,5,15,12,0,0,25,19,23,0,0,0,0,0,0,0,0,0,0,0,0,0,0,0,0,0,0,0,0,0,0,0,0],"split_type":[0,0,0,0,0,0,0,0,0,0,0,0,0,0,0,0,0,0,0,0,0,0,0,0,0,0,0,0,0,0,0,0,0,0,0,0,0,0,0,0,0,0,0,0,0,0,0,0,0,0,0,0,0,0,0,0,0,0,0,0,0,0,0,0,0,0,0,0,0,0,0,0,0],"sum_hessian":[3.6001848E4,8.359356E3,2.764249E4,7.758185E3,6.011714E2,2.551654E4,2.125951E3,7.748564E3,9.621191E0,2.734541E2,3.2771732E2,7.094982E2,2.4807041E4,1.4146104E3,7.1134064E2,7.7473057E3,1.2584254E0,5.8603157E1,2.1485095E2,1.5711479E1,3.1200583E2,3.872305E2,3.2226773E2,1.4343308E3,2.3372709E4,1.1444495E3,2.7016086E2,3.6695544E2,3.4438522E2,1.0104504E0,7.746295E3,5.0104187E1,8.498969E0,3.0594522E2,6.0606117E0,8.33506E1,3.038799E2,7.125673E2,7.217635E2,2.3105213E4,2.674963E2,1.07524025E2,1.0369255E3,1.5738536E2,1.1277551E2,1.3411001E1,3.5354443E2,1.1283025E2,2.3155496E2,7.561539E3,1.8475613E2,3.0184222E2,4.1030087E0,3.987766E1,2.6400226E2,3.8731296E2,3.2525433E2,1.765245E2,2.292869E4,9.6487625E1,1.710087E2,7.631718E1,3.120685E1,3.0125978E1,1.0067995E3,8.641826E1,7.0967094E1,3.013682E0,3.5053076E2,2.5288628E1,8.7541626E1,2.0519829E2,2.6356676E1],"tree_param":{"num_deleted":"0","num_feature":"30","num_nodes":"73","size_leaf_vector":"1"}},{"base_weights":[-2.4927467E-1,1.8988122E0,-9.243095E-1,1.9895889E0,7.0588946E-1,-1.0057613E0,-7.838683E-2,1.9933097E0,-5.2665424E-2,-5.501474E-1,1.7161762E0,7.620424E-3,-1.0342056E0,1.3159441E0,-5.0159115E-1,1.9938164E0,-3.4032673E-2,1.5140283E0,-5.7077255E-2,-5.4638624E-2,1.854682E0,9.8115224E-1,-5.8083255E-2,-1.11000985E-1,-1.0613021E0,-5.820511E-2,1.7148068E0,4.4536924E-1,-8.1090736E-1,-3.3046577E-2,1.9943174E0,-5.295465E-2,9.7101346E-2,-5.165279E-2,1.9120964E0,-5.7704624E-2,1.5881789E0,-7.665684E-1,1.4247043E0,-1.0722497E0,-1.2631191E-1,1.0041943E-1,1.9597241E0,-4.9020055E-1,1.6384522E0,-1.0597669E0,3.5048958E-2,9.9957444E-2,9.235428E-2,-5.4954894E-2,9.75547E-2,-5.6995917E-2,9.990501E-2,-5.8029544E-2,7.458566E-2,9.7854055E-2,-5.8831573E-2,-4.0449362E-2,-5.5324685E-2,7.897558E-2,-5.8215905E-2,9.691075E-2,-5.9228916E-2,-5.6511164E-2,9.938168E-2,5.580767E-2,-5.9212457E-2,1.11794315E-1,-5.884189E-2,-5.752605E-2,6.135732E-2,9.966301E-2,-3.8198214E-2],"categories":[],"categories_nodes":[],"categories_segments":[],"categories_sizes":[],"default_left":[0,0,0,0,0,0,0,0,0,0,0,0,0,0,0,0,0,0,0,0,0,0,0,0,0,0,0,0,0,0,0,0,0,0,0,0,0,0,0,0,0,0,0,0,0,0,0,0,0,0,0,0,0,0,0,0,0,0,0,0,0,0,0,0,0,0,0,0,0,0,0,0,0],"id":9,"left_children":[1,3,5,7,9,11,13,15,-1,17,19,21,23,25,27,29,-1,31,-1,-1,33,35,-1,37,39,-1,41,43,45,-1,47,-1,-1,-1,49,-1,51,53,55,57,59,61,63,65,67,69,71,-1,-1,-1,-1,-1,-1,-1,-1,-1,-1,-1,-1,-1,-1,-1,-1,-1,-1,-1,-1,-1,-1,-1,-1,-1,-1],"loss_changes":[5.0793613E4,9.0561523E2,1.8363789E3,9.021875E1,7.5451294E2,7.0080273E2,1.3826727E3,1.1888672E1,0E0,3.2581818E2,1.3016779E2,7.578712E2,5.9146484E2,5.417137E2,5.268495E2,1.1660156E1,0E0,6.764249E1,0E0,0E0,5.4078735E1,4.7271304E2,0E0,6.810765E2,2.3502148E2,0E0,1.8580432E2,4.9551392E2,2.853468E2,0E0,1.8320312E0,0E0,0E0,0E0,3.8369263E1,0E0,3.1908728E2,4.235058E2,2.826274E2,2.0382227E2,4.746308E2,1.5112305E2,3.7466675E1,2.7913E2,3.3065283E2,2.1875732E2,4.850306E2,0E0,0E0,0E0,0E0,0E0,0E0,0E0,0E0,0E0,0E0,0E0,0E0,0E0,0E0,0E0,0E0,0E0,0E0,0E0,0E0,0E0,0E0,0E0,0E0,0E0,0E0],"parents":[2147483647,0,0,1,1,2,2,3,3,4,4,5,5,6,6,7,7,9,9,10,10,11,11,12,12,13,13,14,14,15,15,17,17,20,20,21,21,23,23,24,24,26,26,27,27,28,28,30,30,34,34,36,36,37,37,38,38,39,39,40,40,41,41,42,42,43,43,44,44,45,45,46,46],"right_children":[2,4,6,8,10,12,14,16,-1,18,20,22,24,26,28,30,-1,32,-1,-1,34,36,-1,38,40,-1,42,44,46,-1,48,-1,-1,-1,50,-1,52,54,56,58,60,62,64,66,68,70,72,-1,-1,-1,-1,-1,-1,-1,-1,-1,-1,-1,-1,-1,-1,-1,-1,-1,-1,-1,-1,-1,-1,-1,-1,-1,-1],"split_conditions":[-2.635484E0,-1.4160796E0,2.1870494E0,1.2646441E0,1.8959074E0,-9.853448E-1,-1.3017312E-1,2.1790798E0,-5.2665424E-2,-8.509862E-1,9.718627E-1,-7.4986964E-2,-1.7859976E0,-1.1583376E0,-2.201951E-1,-7.0277715E-1,-3.4032673E-2,1.5712748E0,-5.7077255E-2,-5.4638624E-2,5.0176145E-3,-2.1592973E-1,-5.8083255E-2,1.0624E2,2.4990346E0,-5.820511E-2,6.3544345E-1,1.4406234E-1,1.1232411E0,-3.3046577E-2,-1.7696148E0,-5.295465E-2,9.7101346E-2,-5.165279E-2,-2.0028193E0,-5.7704624E-2,-1.3903122E-1,1.66793E5,-2.0772192E-1,-8.069166E-1,-5.366979E-1,-2.0208135E0,-6.822609E-1,-1.4617727E0,1.359267E-1,1.2368379E0,-1.8508509E0,9.9957444E-2,9.235428E-2,-5.4954894E-2,9.75547E-2,-5.6995917E-2,9.990501E-2,-5.8029544E-2,7.458566E-2,9.7854055E-2,-5.8831573E-2,-4.0449362E-2,-5.5324685E-2,7.897558E-2,-5.8215905E-2,9.691075E-2,-5.9228916E-2,-5.6511164E-2,9.938168E-2,5.580767E-2,-5.9212457E-2,1.11794315E-1,-5.884189E-2,-5.752605E-2,6.135732E-2,9.966301E-2,-3.8198214E-2],"split_indices":[15,13,5,10,5,21,11,8,0,23,19,13,15,3,9,12,0,19,0,0,29,5,0,1,8,0,12,29,6,0,11,0,0,0,20,0,29,0,9,15,27,11,25,16,28,13,16,0,0,0,0,0,0,0,0,0,0,0,0,0,0,0,0,0,0,0,0,0,0,0,0,0,0],"split_type":[0,0,0,0,0,0,0,0,0,0,0,0,0,0,0,0,0,0,0,0,0,0,0,0,0,0,0,0,0,0,0,0,0,0,0,0,0,0,0,0,0,0,0,0,0,0,0,0,0,0,0,0,0,0,0,0,0,0,0,0,0,0,0,0,0,0,0,0,0,0,0,0,0],"sum_hessian":[3.5027062E4,8.374865E3,2.66522E4,7.7820166E3,5.928489E2,2.4311148E4,2.34105E3,7.772857E3,9.159651E0,2.644845E2,3.2836438E2,6.637694E2,2.3647379E4,5.446111E2,1.7964391E3,7.7716387E3,1.2181411E0,5.855341E1,2.0593108E2,1.5106634E1,3.1325775E2,3.6229132E2,3.014781E2,6.7441956E2,2.2972959E4,7.518814E1,4.694229E2,4.4220493E2,1.3542341E3,1.2179035E0,7.770421E3,8.140187E0,5.0413223E1,5.77555E0,3.0748218E2,7.999697E1,2.8229434E2,4.730031E2,2.0141644E2,2.2706945E4,2.6601514E2,6.2020576E1,4.0740234E2,2.4818047E2,1.9402446E2,1.0462117E3,3.0802243E2,7.51136E3,2.5906104E2,3.583693E0,3.038985E2,3.6643658E1,2.4565068E2,4.0314832E2,6.98548E1,1.6740402E2,3.401243E1,2.6164934E3,2.0090451E4,1.0043767E2,1.6557747E2,2.5311659E1,3.6708916E1,3.2933202E0,4.04109E2,7.4694405E1,1.7348605E2,1.6022815E2,3.3796303E1,1.0067564E3,3.945532E1,8.882836E1,2.1919406E2],"tree_param":{"num_deleted":"0","num_feature":"30","num_nodes":"73","size_leaf_vector":"1"}},{"base_weights":[-2.4455376E-1,1.809649E0,-9.122288E-1,1.8943213E0,6.810034E-1,-9.893857E-1,-2.3598189E-2,1.897822E0,-5.137684E-2,-5.4180497E-1,1.6337215E0,5.702588E-2,-1.0207268E0,-5.7060415E-1,1.012209E0,1.8983084E0,-3.3682987E-2,1.4451905E0,-5.6659635E-2,-5.409475E-2,1.7627045E0,9.7628325E-1,-5.7665396E-2,-5.4550254E-1,-1.0769237E0,-8.4960693E-1,5.1690984E-1,1.7633032E0,1.9427986E-1,9.514491E-2,1.7035397E0,9.244394E-2,-5.1439643E-2,1.8196695E0,-5.1146626E-2,-5.721084E-2,1.4966003E0,-9.0994763E-1,5.7960186E-2,-1.08939E0,-6.6345066E-2,1.0887996E0,-1.0692867E0,1.6033584E0,-5.937856E-2,-5.422395E-2,1.8650491E0,1.8803862E0,-7.4119383E-1,9.3059175E-2,-7.765015E-2,9.298461E-2,-5.038021E-2,-5.665269E-2,9.242932E-2,-5.1403996E-2,2.0627474E-2,7.03774E-2,-2.2947056E-2,3.835626E-3,-5.4698408E-2,1.2684207E-1,-3.6483753E-2,9.703853E-2,-5.8129E-2,7.167084E-2,-5.768297E-2,1.12748995E-1,-5.826964E-2,-5.5160996E-2,9.462074E-2,-5.673312E-2,1.3131522E-1,-5.7819646E-2,9.893889E-2],"categories":[],"categories_nodes":[],"categories_segments":[],"categories_sizes":[],"default_left":[0,0,0,0,0,0,0,0,0,0,0,0,0,0,0,0,0,0,0,0,0,0,0,0,0,0,0,0,0,0,0,0,0,0,0,0,0,0,0,0,0,0,0,0,0,0,0,0,0,0,0,0,0,0,0,0,0,0,0,0,0,0,0,0,0,0,0,0,0,0,0,0,0,0,0],"id":10,"left_children":[1,3,5,7,9,11,13,15,-1,17,19,21,23,25,27,29,-1,31,-1,-1,33,35,-1,37,39,41,43,45,47,-1,49,-1,-1,51,-1,-1,53,55,57,59,61,63,65,67,-1,-1,69,71,73,-1,-1,-1,-1,-1,-1,-1,-1,-1,-1,-1,-1,-1,-1,-1,-1,-1,-1,-1,-1,-1,-1,-1,-1,-1,-1],"loss_changes":[4.668275E4,7.9660547E2,1.7611992E3,8.138867E1,6.814955E2,7.7518945E2,1.1638984E3,1.0980469E1,0E0,3.0315887E2,1.1701367E2,7.668855E2,6.122617E2,4.083148E2,4.3579297E2,3.6953125E0,0E0,6.111927E1,0E0,0E0,5.1704468E1,4.3389398E2,0E0,5.3420105E2,2.5844336E2,4.5687854E2,5.1130768E2,1.0921826E2,5.392011E2,0E0,9.945972E1,0E0,0E0,3.674463E1,0E0,0E0,2.9362366E2,2.3700305E2,6.3925104E2,1.0830078E2,4.3546255E2,2.1216159E2,2.0473633E2,3.0649374E2,0E0,0E0,3.113208E1,2.7724597E2,2.5075656E2,0E0,0E0,0E0,0E0,0E0,0E0,0E0,0E0,0E0,0E0,0E0,0E0,0E0,0E0,0E0,0E0,0E0,0E0,0E0,0E0,0E0,0E0,0E0,0E0,0E0,0E0],"parents":[2147483647,0,0,1,1,2,2,3,3,4,4,5,5,6,6,7,7,9,9,10,10,11,11,12,12,13,13,14,14,15,15,17,17,20,20,21,21,23,23,24,24,25,25,26,26,27,27,28,28,30,30,33,33,36,36,37,37,38,38,39,39,40,40,41,41,42,42,43,43,46,46,47,47,48,48],"right_children":[2,4,6,8,10,12,14,16,-1,18,20,22,24,26,28,30,-1,32,-1,-1,34,36,-1,38,40,42,44,46,48,-1,50,-1,-1,52,-1,-1,54,56,58,60,62,64,66,68,-1,-1,70,72,74,-1,-1,-1,-1,-1,-1,-1,-1,-1,-1,-1,-1,-1,-1,-1,-1,-1,-1,-1,-1,-1,-1,-1,-1,-1,-1],"split_conditions":[-2.635484E0,-1.4160796E0,2.4474049E0,5.767415E-1,1.8959074E0,-9.853448E-1,6.3544345E-1,2.1790798E0,-5.137684E-2,-8.509862E-1,9.718627E-1,-7.4986964E-2,-9.9395156E-1,1.3904194E0,-1.3017312E-1,2.1755762E0,-3.3682987E-2,-4.4512385E-1,-5.6659635E-2,-5.409475E-2,1.74E1,-2.1592973E-1,-5.7665396E-2,3.7293696E-1,2.4990346E0,-8.2312953E-1,9.51E0,-1.4085292E0,-5.9687495E-1,9.514491E-2,1.12E0,9.244394E-2,-5.1439643E-2,2.0129874E0,-5.1146626E-2,-5.721084E-2,-1.3903122E-1,1.327541E0,-3.166416E-1,-2.450811E0,-1.5306481E0,2.96552E0,-2.187939E0,3.5852173E-1,-5.937856E-2,-5.422395E-2,-7.5105906E-1,-9.5316654E-1,1.1736002E0,9.3059175E-2,-7.765015E-2,9.298461E-2,-5.038021E-2,-5.665269E-2,9.242932E-2,-5.1403996E-2,2.0627474E-2,7.03774E-2,-2.2947056E-2,3.835626E-3,-5.4698408E-2,1.2684207E-1,-3.6483753E-2,9.703853E-2,-5.8129E-2,7.167084E-2,-5.768297E-2,1.12748995E-1,-5.826964E-2,-5.5160996E-2,9.462074E-2,-5.673312E-2,1.3131522E-1,-5.7819646E-2,9.893889E-2],"split_indices":[15,13,5,11,5,21,12,8,0,23,19,13,15,6,11,18,0,16,0,0,1,5,0,5,8,22,1,3,19,0,1,0,0,3,0,0,29,12,13,20,14,5,15,4,0,0,25,19,23,0,0,0,0,0,0,0,0,0,0,0,0,0,0,0,0,0,0,0,0,0,0,0,0,0,0],"split_type":[0,0,0,0,0,0,0,0,0,0,0,0,0,0,0,0,0,0,0,0,0,0,0,0,0,0,0,0,0,0,0,0,0,0,0,0,0,0,0,0,0,0,0,0,0,0,0,0,0,0,0,0,0,0,0,0,0,0,0,0,0,0,0,0,0,0,0,0,0,0,0,0,0,0,0],"sum_hessian":[3.403454E4,8.348233E3,2.5686305E4,7.765014E3,5.832191E2,2.363412E4,2.0521868E3,7.756072E3,8.942394E0,2.5559529E2,3.2762384E2,6.8725616E2,2.2946861E4,1.3432634E3,7.089233E2,7.754867E3,1.2048097E0,5.8293156E1,1.9730212E2,1.4520501E1,3.1310333E2,3.9070572E2,2.9655048E2,2.4277297E3,2.0519133E4,1.0691824E3,2.7408102E2,3.68958E2,3.399653E2,7.56776E3,1.871071E2,5.0332844E1,7.9603114E0,3.0716864E2,5.934698E0,7.674402E1,3.139617E2,1.5133032E3,9.144267E2,2.0269021E4,2.5011108E2,1.0843339E2,9.60749E2,1.6742343E2,1.0665759E2,1.2394282E1,3.5656372E2,1.2095136E2,2.1901393E2,1.7887646E2,8.230638E0,3.0321854E2,3.950101E0,3.6801586E1,2.771601E2,1.389416E3,1.2388716E2,2.5276208E2,6.616646E2,7.9204704E1,2.0189816E4,5.0216393E1,1.998947E2,7.876498E1,2.9668413E1,3.081158E1,9.2993744E2,1.356775E2,3.1745934E1,2.8981335E0,3.536656E2,2.3885096E1,9.706627E1,1.9050806E2,2.8505886E1],"tree_param":{"num_deleted":"0","num_feature":"30","num_nodes":"75","size_leaf_vector":"1"}},{"base_weights":[-2.4008562E-1,1.7324685E0,-9.0026915E-1,1.8120173E0,6.588882E-1,-9.777383E-1,-2.400189E-2,1.8153075E0,-5.0853487E-2,-5.341016E-1,1.5622885E0,-5.4119194E-1,-1.0544076E0,-5.5879515E-1,9.663148E-1,1.8157729E0,-3.3151977E-2,1.3853681E0,-5.6266736E-2,-5.357222E-2,1.6833172E0,-8.474249E-1,3.6020935E-1,-1.0718303E0,6.5723516E-2,-8.3849186E-1,4.8635846E-1,1.6821831E0,1.8431626E-1,1.8203439E0,1.6229192E0,-5.2223325E-2,8.833871E-2,1.7369189E0,-5.0476898E-2,-8.8391757E-1,2.6645389E0,1.8039616E0,-4.7204572E-1,-3.0456555E-1,-1.0883645E0,-5.910766E-2,1.4248422E0,1.0356312E0,-1.0593573E0,1.4709569E0,-5.879861E-2,-5.3649377E-2,1.7773439E0,1.723801E0,-7.274846E-1,-3.7112933E-2,9.1039516E-2,8.863167E-2,-7.515327E-2,8.8735394E-2,-4.958486E-2,-1.8062515E-2,-5.4392565E-2,-5.3174414E-2,3.623745E-1,1.3875704E-1,2.5109297E-2,9.647379E-2,-4.661544E-2,-4.4986922E-2,7.162989E-2,5.2605863E-3,-5.466717E-2,1.18056886E-1,-5.8838576E-2,9.111231E-2,-5.751574E-2,6.7374125E-2,-5.7251006E-2,1.2711191E-1,-9.838309E-4,9.015375E-2,-5.5773646E-2,1.1866124E-1,-5.7114583E-2,-5.7453025E-2,9.298464E-2],"categories":[],"categories_nodes":[],"categories_segments":[],"categories_sizes":[],"default_left":[0,0,0,0,0,0,0,0,0,0,0,0,0,0,0,0,0,0,0,0,0,0,0,0,0,0,0,0,0,0,0,0,0,0,0,0,0,0,0,0,0,0,0,0,0,0,0,0,0,0,0,0,0,0,0,0,0,0,0,0,0,0,0,0,0,0,0,0,0,0,0,0,0,0,0,0,0,0,0,0,0,0,0],"id":11,"left_children":[1,3,5,7,9,11,13,15,-1,17,19,21,23,25,27,29,-1,31,-1,-1,33,35,37,39,41,43,45,47,49,51,53,-1,-1,55,-1,57,59,61,63,65,67,-1,69,71,73,75,-1,-1,77,79,81,-1,-1,-1,-1,-1,-1,-1,-1,-1,-1,-1,-1,-1,-1,-1,-1,-1,-1,-1,-1,-1,-1,-1,-1,-1,-1,-1,-1,-1,-1,-1,-1],"loss_changes":[4.303194E4,7.0646484E2,1.6806348E3,7.3646484E1,6.185974E2,7.6075977E2,1.0661455E3,1.009375E1,0E0,2.8272403E2,1.0585986E2,9.3889514E2,3.7765234E2,3.8251688E2,3.948615E2,3.8398438E0,0E0,5.6329826E1,0E0,0E0,4.6858887E1,3.276631E2,1.0377228E3,2.4135938E2,5.0585815E2,4.2808295E2,4.5443124E2,9.84989E1,4.7639804E2,9.953125E0,9.045883E1,0E0,0E0,3.339038E1,0E0,2.6745862E2,4.5795807E2,3.977959E2,6.077194E2,4.1824445E2,1.109375E2,0E0,3.5049075E2,1.8996301E2,1.9190332E2,2.781457E2,0E0,0E0,2.8546753E1,2.3761841E2,2.3476793E2,0E0,0E0,0E0,0E0,0E0,0E0,0E0,0E0,0E0,0E0,0E0,0E0,0E0,0E0,0E0,0E0,0E0,0E0,0E0,0E0,0E0,0E0,0E0,0E0,0E0,0E0,0E0,0E0,0E0,0E0,0E0,0E0],"parents":[2147483647,0,0,1,1,2,2,3,3,4,4,5,5,6,6,7,7,9,9,10,10,11,11,12,12,13,13,14,14,15,15,17,17,20,20,21,21,22,22,23,23,24,24,25,25,26,26,27,27,28,28,29,29,30,30,33,33,35,35,36,36,37,37,38,38,39,39,40,40,42,42,43,43,44,44,45,45,48,48,49,49,50,50],"right_children":[2,4,6,8,10,12,14,16,-1,18,20,22,24,26,28,30,-1,32,-1,-1,34,36,38,40,42,44,46,48,50,52,54,-1,-1,56,-1,58,60,62,64,66,68,-1,70,72,74,76,-1,-1,78,80,82,-1,-1,-1,-1,-1,-1,-1,-1,-1,-1,-1,-1,-1,-1,-1,-1,-1,-1,-1,-1,-1,-1,-1,-1,-1,-1,-1,-1,-1,-1,-1,-1],"split_conditions":[-2.635484E0,-1.4160796E0,2.4474049E0,5.767415E-1,1.8959074E0,-8.069166E-1,6.3544345E-1,2.1790798E0,-5.0853487E-2,-8.509862E-1,9.718627E-1,7.413282E-1,2.4990346E0,1.3904194E0,-1.3017312E-1,2.1755762E0,-3.3151977E-2,1.5712748E0,-5.6266736E-2,-5.357222E-2,1.74E1,1.2022438E0,-4.480329E-1,-9.853448E-1,-6.563022E-2,-8.2312953E-1,9.51E0,-1.4085292E0,-5.9687495E-1,4.6018746E-2,1.12E0,-5.2223325E-2,8.833871E-2,2.0129874E0,-5.0476898E-2,-8.771465E-1,-8.2587683E-1,5.8371E4,7.754518E-1,-1.7444316E0,-2.450811E0,-5.910766E-2,-4.2868984E-1,2.96552E0,-2.187939E0,-1.1212862E0,-5.879861E-2,-5.3649377E-2,4.75442E-1,2.1421788E-2,6.927272E-1,-3.7112933E-2,9.1039516E-2,8.863167E-2,-7.515327E-2,8.8735394E-2,-4.958486E-2,-1.8062515E-2,-5.4392565E-2,-5.3174414E-2,3.623745E-1,1.3875704E-1,2.5109297E-2,9.647379E-2,-4.661544E-2,-4.4986922E-2,7.162989E-2,5.2605863E-3,-5.466717E-2,1.18056886E-1,-5.8838576E-2,9.111231E-2,-5.751574E-2,6.7374125E-2,-5.7251006E-2,1.2711191E-1,-9.838309E-4,9.015375E-2,-5.5773646E-2,1.1866124E-1,-5.7114583E-2,-5.7453025E-2,9.298464E-2],"split_indices":[15,13,5,11,5,15,12,8,0,23,19,5,8,6,11,18,0,19,0,0,1,27,13,21,10,22,1,3,19,12,1,0,0,3,0,11,15,0,5,2,20,0,17,5,15,12,0,0,9,28,26,0,0,0,0,0,0,0,0,0,0,0,0,0,0,0,0,0,0,0,0,0,0,0,0,0,0,0,0,0,0,0,0],"split_type":[0,0,0,0,0,0,0,0,0,0,0,0,0,0,0,0,0,0,0,0,0,0,0,0,0,0,0,0,0,0,0,0,0,0,0,0,0,0,0,0,0,0,0,0,0,0,0,0,0,0,0,0,0,0,0,0,0,0,0,0,0,0,0,0,0,0,0,0,0,0,0,0,0,0,0,0,0,0,0,0,0,0,0],"sum_hessian":[3.3042164E4,8.285224E3,2.475694E4,7.7130254E3,5.721983E2,2.27459E4,2.0110391E3,7.704424E3,8.601636E0,2.4675438E2,3.2544394E2,3.3992102E3,1.934669E4,1.3061334E3,7.0490564E2,7.703244E3,1.179562E0,5.779068E1,1.889637E2,1.3953155E1,3.1149078E2,2.53728E3,8.619302E2,1.905042E4,2.9627005E2,1.0305441E3,2.7558926E2,3.674125E2,3.3749313E2,7.5166504E3,1.8659349E2,7.6047063E0,5.0185974E1,3.0575958E2,5.7312036E0,2.511927E3,2.5352982E1,3.1475034E2,5.471799E2,4.022793E2,1.864814E4,1.5452391E2,1.4174614E2,1.0825681E2,9.222873E2,1.7314853E2,1.02440735E2,1.1923322E1,3.5548917E2,1.25205536E2,2.1228761E2,1.0199268E0,7.515631E3,1.7847849E2,8.115007E0,3.0192773E2,3.8318355E0,7.0579584E2,1.8061312E3,1.4403954E1,1.0949028E1,1.7961685E2,1.3513347E2,8.7489975E1,4.5968988E2,2.9998346E2,1.02295845E2,7.7381096E1,1.857076E4,1.0430149E2,3.744465E1,7.9731674E1,2.8525145E1,3.1191143E1,8.910962E2,1.0033487E2,7.281365E1,3.5272842E2,2.7607486E0,1.0221643E2,2.2989109E1,1.8302058E2,2.9267015E1],"tree_param":{"num_deleted":"0","num_feature":"30","num_nodes":"83","size_leaf_vector":"1"}},{"base_weights":[-2.3591775E-1,1.6650118E0,-8.8874376E-1,1.7402451E0,6.3888943E-1,-9.8348796E-1,-1.7525758E-1,1.743358E0,-5.0344504E-2,-5.268549E-1,1.4992658E0,1.7367163E-3,-1.0158399E0,8.706049E-1,-5.0722617E-1,1.7438066E0,-3.2634307E-2,1.3314447E0,-5.5896696E-2,-5.3069003E-2,1.6135015E0,9.411508E-1,-5.7974536E-2,-1.9189353E-1,-1.0370728E0,1.2660321E0,-5.6904305E-2,4.862298E-1,-8.243902E-1,1.7483743E0,1.5521573E0,8.480109E-2,-5.0641235E-2,-5.160434E-2,1.6647455E0,1.4425721E0,-5.832575E-2,-9.455554E-1,1.1384687E0,-1.0492686E0,-4.9618885E-2,-5.6892276E-2,1.4521573E0,1.620003E0,-3.2387865E-1,-5.709513E-2,-3.3583865E-1,-3.647044E-2,8.744035E-2,8.480562E-2,-7.737938E-2,-5.598721E-2,8.5031934E-2,4.9240994E-3,1.1839936E-1,7.175194E-2,-5.81894E-2,9.666037E-2,-5.7935096E-2,-3.9518774E-2,-5.4185737E-2,6.953991E-2,-5.7090323E-2,6.68664E-2,2.493136E-1,-6.52868E-3,1.23077706E-1,8.6139545E-2,-5.7276506E-2,2.7684769E-2,-4.7409397E-2],"categories":[],"categories_nodes":[],"categories_segments":[],"categories_sizes":[],"default_left":[0,0,0,0,0,0,0,0,0,0,0,0,0,0,0,0,0,0,0,0,0,0,0,0,0,0,0,0,0,0,0,0,0,0,0,0,0,0,0,0,0,0,0,0,0,0,0,0,0,0,0,0,0,0,0,0,0,0,0,0,0,0,0,0,0,0,0,0,0,0,0],"id":12,"left_children":[1,3,5,7,9,11,13,15,-1,17,19,21,23,25,27,29,-1,31,-1,-1,33,35,-1,37,39,41,-1,43,45,47,49,-1,-1,-1,51,53,-1,55,57,59,61,-1,63,65,67,-1,69,-1,-1,-1,-1,-1,-1,-1,-1,-1,-1,-1,-1,-1,-1,-1,-1,-1,-1,-1,-1,-1,-1,-1,-1],"loss_changes":[3.97716E4,6.313574E2,1.6124414E3,6.7021484E1,5.6368713E2,6.712383E2,9.7177856E2,9.332031E0,0E0,2.640724E2,9.624402E1,7.3255634E2,3.5650586E2,5.3713434E2,6.6972833E2,3.9589844E0,0E0,5.1413124E1,0E0,0E0,4.3712524E1,3.9399817E2,0E0,5.1588983E2,2.3932422E2,2.5398633E2,0E0,4.7325525E2,2.494491E2,9.248047E0,8.578851E1,0E0,0E0,0E0,3.231299E1,3.7332288E2,0E0,1.7223853E2,3.4206436E2,1.7424023E2,3.847458E2,0E0,2.059342E2,3.1656122E2,5.0819437E2,0E0,3.4686267E2,0E0,0E0,0E0,0E0,0E0,0E0,0E0,0E0,0E0,0E0,0E0,0E0,0E0,0E0,0E0,0E0,0E0,0E0,0E0,0E0,0E0,0E0,0E0,0E0],"parents":[2147483647,0,0,1,1,2,2,3,3,4,4,5,5,6,6,7,7,9,9,10,10,11,11,12,12,13,13,14,14,15,15,17,17,20,20,21,21,23,23,24,24,25,25,27,27,28,28,29,29,30,30,34,34,35,35,37,37,38,38,39,39,40,40,42,42,43,43,44,44,46,46],"right_children":[2,4,6,8,10,12,14,16,-1,18,20,22,24,26,28,30,-1,32,-1,-1,34,36,-1,38,40,42,-1,44,46,48,50,-1,-1,-1,52,54,-1,56,58,60,62,-1,64,66,68,-1,70,-1,-1,-1,-1,-1,-1,-1,-1,-1,-1,-1,-1,-1,-1,-1,-1,-1,-1,-1,-1,-1,-1,-1,-1],"split_conditions":[-2.635484E0,-1.4160796E0,1.620582E0,5.767415E-1,1.8959074E0,-1.7859976E0,-8.2587683E-1,2.1790798E0,-5.0344504E-2,-8.509862E-1,9.718627E-1,-1.1814422E-1,-9.853448E-1,1.2329714E0,3.99E0,2.1755762E0,-3.2634307E-2,-4.4512385E-1,-5.5896696E-2,-5.3069003E-2,5.0176145E-3,2.2414032E-2,-5.7974536E-2,-2.027623E0,2.4990346E0,-5.3077763E-1,-5.6904305E-2,-1.05382696E-1,4.3795803E-1,4.6018746E-2,-1.185995E0,8.480109E-2,-5.0641235E-2,-5.160434E-2,-2.0028193E0,-2.005085E-2,-5.832575E-2,-1.6137081E0,7.24873E-2,-8.069166E-1,-5.366979E-1,-5.6892276E-2,1.2034454E0,-2.0575768E-1,-1.8798271E0,-5.709513E-2,-5.725717E-1,-3.647044E-2,8.744035E-2,8.480562E-2,-7.737938E-2,-5.598721E-2,8.5031934E-2,4.9240994E-3,1.1839936E-1,7.175194E-2,-5.81894E-2,9.666037E-2,-5.7935096E-2,-3.9518774E-2,-5.4185737E-2,6.953991E-2,-5.7090323E-2,6.68664E-2,2.493136E-1,-6.52868E-3,1.23077706E-1,8.6139545E-2,-5.7276506E-2,2.7684769E-2,-4.7409397E-2],"split_indices":[15,13,5,11,5,15,15,8,0,23,19,27,21,4,1,18,0,16,0,0,29,28,0,2,8,12,0,27,23,12,20,0,0,0,20,28,0,18,7,15,27,0,4,27,9,0,13,0,0,0,0,0,0,0,0,0,0,0,0,0,0,0,0,0,0,0,0,0,0,0,0],"split_type":[0,0,0,0,0,0,0,0,0,0,0,0,0,0,0,0,0,0,0,0,0,0,0,0,0,0,0,0,0,0,0,0,0,0,0,0,0,0,0,0,0,0,0,0,0,0,0,0,0,0,0,0,0,0,0,0,0,0,0,0,0,0,0,0,0,0,0,0,0,0,0],"sum_hessian":[3.204645E4,8.1917563E3,2.3854693E4,7.6315312E3,5.602254E2,2.105801E4,2.7966821E3,7.6232583E3,8.272622E0,2.3805997E2,3.221654E2,6.6953156E2,2.0388479E4,6.734295E2,2.1232527E3,7.6221035E3,1.1548501E0,5.7145878E1,1.8091408E2,1.3404573E1,3.0876083E2,3.702195E2,2.99312E2,5.124561E2,1.9876023E4,5.6297327E2,1.1045619E2,5.136883E2,1.6095643E3,7.436732E3,1.8537195E2,4.969406E1,7.4518175E0,5.5032287E0,3.0325763E2,2.9932465E2,7.089487E1,3.273173E2,1.8513884E2,1.963347E4,2.4255225E2,4.008942E1,5.2288385E2,2.1366185E2,3.0002646E2,9.7473883E2,6.348255E2,1.0040208E0,7.4357275E3,1.775779E2,7.7940655E0,3.4750664E0,2.9978256E2,1.2250399E2,1.7682066E2,2.7017765E1,3.002995E2,1.3766881E2,4.7470024E1,2.30832E3,1.732515E4,1.0448293E2,1.3806932E2,5.077642E2,1.5119695E1,6.964099E1,1.4402086E2,8.563059E1,2.1439586E2,2.5887073E2,3.759548E2],"tree_param":{"num_deleted":"0","num_feature":"30","num_nodes":"71","size_leaf_vector":"1"}},{"base_weights":[-2.3191187E-1,1.6055516E0,-8.772552E-1,1.6771283E0,6.2059605E-1,-9.729626E-1,-1.7067221E-1,1.6800766E0,-5.0517213E-2,-5.2014035E-1,1.4425426E0,4.129356E-4,-1.0058186E0,8.288094E-1,-4.9504352E-1,-3.1572953E-2,1.6805112E0,1.2839456E0,-5.5547792E-2,1.5513197E0,-5.362023E-2,8.835937E-1,-5.752033E-2,-1.8742868E-1,-1.0273015E0,1.1965342E0,-5.6483965E-2,4.632142E-1,-8.0917364E-1,1.68094E0,-3.1880375E-2,-5.1556945E-2,8.159249E-2,1.6090146E0,-5.1627845E-2,1.344711E0,-5.7224125E-2,-9.3511E-1,1.0731995E0,-1.0397402E0,-4.8759814E-2,-5.6404915E-2,1.3679183E0,1.5033625E0,-3.1652674E-1,-5.670314E-2,-3.2394296E-1,8.4259786E-2,7.509853E-2,8.25017E-2,-5.6141175E-2,8.789627E-2,-5.7806965E-2,6.859247E-2,-5.773404E-2,-5.6379832E-2,9.055136E-2,-3.8731117E-2,-5.377235E-2,6.435066E-2,-5.666033E-2,-6.054467E-2,7.5107865E-2,-6.2247296E-3,1.12848155E-1,8.0446936E-2,-5.6856096E-2,1.5664233E-2,-5.6654777E-2],"categories":[],"categories_nodes":[],"categories_segments":[],"categories_sizes":[],"default_left":[0,0,0,0,0,0,0,0,0,0,0,0,0,0,0,0,0,0,0,0,0,0,0,0,0,0,0,0,0,0,0,0,0,0,0,0,0,0,0,0,0,0,0,0,0,0,0,0,0,0,0,0,0,0,0,0,0,0,0,0,0,0,0,0,0,0,0,0,0],"id":13,"left_children":[1,3,5,7,9,11,13,15,-1,17,19,21,23,25,27,-1,29,31,-1,33,-1,35,-1,37,39,41,-1,43,45,47,-1,-1,-1,49,-1,51,-1,53,55,57,59,-1,61,63,65,-1,67,-1,-1,-1,-1,-1,-1,-1,-1,-1,-1,-1,-1,-1,-1,-1,-1,-1,-1,-1,-1,-1,-1],"loss_changes":[3.68338E4,5.681719E2,1.5544297E3,6.133203E1,5.1510693E2,6.474844E2,8.89881E2,8.6171875E0,0E0,2.4708115E2,8.896039E1,6.7393774E2,3.4413672E2,4.8575E2,6.2407043E2,0E0,8.542969E0,4.785009E1,0E0,4.732086E1,0E0,3.523834E2,0E0,4.743317E2,2.3222852E2,2.2734503E2,0E0,4.1586578E2,2.456853E2,3.1914062E0,0E0,0E0,0E0,3.5468506E1,0E0,3.1837695E2,0E0,1.6152704E2,3.0638257E2,1.7755273E2,3.4995975E2,0E0,1.8470447E2,2.6969324E2,4.6564935E2,0E0,3.2381906E2,0E0,0E0,0E0,0E0,0E0,0E0,0E0,0E0,0E0,0E0,0E0,0E0,0E0,0E0,0E0,0E0,0E0,0E0,0E0,0E0,0E0,0E0],"parents":[2147483647,0,0,1,1,2,2,3,3,4,4,5,5,6,6,7,7,9,9,10,10,11,11,12,12,13,13,14,14,16,16,17,17,19,19,21,21,23,23,24,24,25,25,27,27,28,28,29,29,33,33,35,35,37,37,38,38,39,39,40,40,42,42,43,43,44,44,46,46],"right_children":[2,4,6,8,10,12,14,16,-1,18,20,22,24,26,28,-1,30,32,-1,34,-1,36,-1,38,40,42,-1,44,46,48,-1,-1,-1,50,-1,52,-1,54,56,58,60,-1,62,64,66,-1,68,-1,-1,-1,-1,-1,-1,-1,-1,-1,-1,-1,-1,-1,-1,-1,-1,-1,-1,-1,-1,-1,-1],"split_conditions":[-2.635484E0,-1.4160796E0,1.620582E0,1.2646441E0,1.8959074E0,-1.7859976E0,-8.2587683E-1,-7.0277715E-1,-5.0517213E-2,-8.509862E-1,1.74E1,-1.1814422E-1,-9.853448E-1,1.2329714E0,3.99E0,-3.1572953E-2,2.1790798E0,1.5712748E0,-5.5547792E-2,2.0129874E0,-5.362023E-2,-1.7279367E-1,-5.752033E-2,-2.027623E0,2.4990346E0,-5.3077763E-1,-5.6483965E-2,-1.05382696E-1,4.3795803E-1,2.1755762E0,-3.1880375E-2,-5.1556945E-2,8.159249E-2,2.0826507E-1,-5.1627845E-2,2.2414032E-2,-5.7224125E-2,-1.6137081E0,-2.1592973E-1,-8.069166E-1,-5.366979E-1,-5.6404915E-2,-5.9263724E-1,-2.0575768E-1,-1.8798271E0,-5.670314E-2,-2.761215E-1,8.4259786E-2,7.509853E-2,8.25017E-2,-5.6141175E-2,8.789627E-2,-5.7806965E-2,6.859247E-2,-5.773404E-2,-5.6379832E-2,9.055136E-2,-3.8731117E-2,-5.377235E-2,6.435066E-2,-5.666033E-2,-6.054467E-2,7.5107865E-2,-6.2247296E-3,1.12848155E-1,8.0446936E-2,-5.6856096E-2,1.5664233E-2,-5.6654777E-2],"split_indices":[15,13,5,10,5,15,15,12,0,23,1,27,21,4,1,0,8,19,0,3,0,4,0,2,8,12,0,27,23,18,0,0,0,24,0,28,0,18,5,15,27,0,25,27,9,0,13,0,0,0,0,0,0,0,0,0,0,0,0,0,0,0,0,0,0,0,0,0,0],"split_type":[0,0,0,0,0,0,0,0,0,0,0,0,0,0,0,0,0,0,0,0,0,0,0,0,0,0,0,0,0,0,0,0,0,0,0,0,0,0,0,0,0,0,0,0,0,0,0,0,0,0,0,0,0,0,0,0,0,0,0,0,0,0,0,0,0,0,0,0,0],"sum_hessian":[3.1060357E4,8.072974E3,2.2987383E4,7.5253994E3,5.4757434E2,2.0244822E4,2.7425598E3,7.5175273E3,7.8720927E0,2.2947089E2,3.1810342E2,6.610753E2,1.9583748E4,6.716028E2,2.070957E3,1.1404467E0,7.516387E3,5.6320408E1,1.7315048E2,3.0528244E2,1.2821E1,3.7416202E2,2.8691333E2,5.011793E2,1.9082568E4,5.657642E2,1.05838524E2,5.1116562E2,1.5597915E3,7.515272E3,1.1149837E0,7.10137E0,4.9219036E1,2.9898376E2,6.2986655E0,3.051239E2,6.90381E1,3.147554E2,1.8642389E2,1.8842986E4,2.3958224E2,3.8463818E1,5.273004E2,2.1861392E2,2.925517E2,9.334543E2,6.263372E2,7.3324956E3,1.827764E2,2.94951E2,4.032792E0,2.6211227E2,4.301163E1,2.6898077E1,2.8785733E2,4.667455E1,1.3974934E2,2.2392874E3,1.66037E4,1.072678E2,1.3231445E2,2.5693436E1,5.01607E2,6.944346E1,1.4917046E2,8.713506E1,2.0541663E2,3.5073642E2,2.7560077E2],"tree_param":{"num_deleted":"0","num_feature":"30","num_nodes":"69","size_leaf_vector":"1"}},{"base_weights":[-2.2815992E-1,1.5527607E0,-8.6627436E-1,1.6211654E0,6.0402703E-1,-9.6279585E-1,-1.6652316E-1,1.6240113E0,-4.943007E-2,-5.137868E-1,1.3923757E0,-8.7239617E-4,-9.960624E-1,7.3682576E-1,-5.037111E-1,1.6244344E0,-3.161503E-2,1.240412E0,-5.521846E-2,1.4961092E0,-5.3094078E-2,8.351924E-1,-5.709312E-2,-1.8325424E-1,-1.01777E0,-7.5717074E-1,1.230596E0,2.7318373E-1,-9.3468505E-1,8.145744E-2,1.4295646E0,7.882165E-2,-4.9904626E-2,1.5512646E0,-5.097995E-2,1.2591665E0,-5.676029E-2,-9.251523E-1,1.0161444E0,-1.03045E0,-4.7898915E-2,7.9904936E-2,-5.667107E-2,1.3825567E0,-5.546799E-2,6.5274286E-1,-5.626298E-2,-1.0467949E0,-3.5505775E-2,7.852492E-2,-7.72591E-2,7.9535976E-2,-5.5129636E-2,8.16244E-2,-5.727343E-2,6.568584E-2,-5.730505E-2,8.545058E-2,-5.760461E-2,-3.7947483E-2,-5.33742E-2,-5.9825372E-2,5.9222233E-2,7.457023E-2,-5.9440177E-2,5.1219042E-2,-5.6741443E-2,2.4048302E-2,-5.648501E-2,8.097884E-2,-5.6761768E-2],"categories":[],"categories_nodes":[],"categories_segments":[],"categories_sizes":[],"default_left":[0,0,0,0,0,0,0,0,0,0,0,0,0,0,0,0,0,0,0,0,0,0,0,0,0,0,0,0,0,0,0,0,0,0,0,0,0,0,0,0,0,0,0,0,0,0,0,0,0,0,0,0,0,0,0,0,0,0,0,0,0,0,0,0,0,0,0,0,0,0,0],"id":14,"left_children":[1,3,5,7,9,11,13,15,-1,17,19,21,23,25,27,29,-1,31,-1,33,-1,35,-1,37,39,41,43,45,47,-1,49,-1,-1,51,-1,53,-1,55,57,59,61,-1,-1,63,-1,65,-1,67,69,-1,-1,-1,-1,-1,-1,-1,-1,-1,-1,-1,-1,-1,-1,-1,-1,-1,-1,-1,-1,-1,-1],"loss_changes":[3.418156E4,5.1393945E2,1.4954355E3,5.656836E1,4.7234015E2,6.2268945E2,8.183312E2,8.083984E0,0E0,2.314385E2,8.155939E1,6.2241675E2,3.3167578E2,5.396762E2,6.551864E2,4.4628906E0,0E0,4.4000397E1,0E0,4.345703E1,0E0,3.1599893E2,0E0,4.373807E2,2.2523828E2,1.6312283E2,1.9684766E2,3.7160233E2,1.268136E2,0E0,7.904483E1,0E0,0E0,3.2717407E1,0E0,2.804704E2,0E0,1.5166714E2,2.8428082E2,1.8100781E2,3.375374E2,0E0,0E0,1.4625916E2,0E0,3.6666528E2,0E0,1.4225256E2,2.5763086E2,0E0,0E0,0E0,0E0,0E0,0E0,0E0,0E0,0E0,0E0,0E0,0E0,0E0,0E0,0E0,0E0,0E0,0E0,0E0,0E0,0E0,0E0],"parents":[2147483647,0,0,1,1,2,2,3,3,4,4,5,5,6,6,7,7,9,9,10,10,11,11,12,12,13,13,14,14,15,15,17,17,19,19,21,21,23,23,24,24,25,25,26,26,27,27,28,28,30,30,33,33,35,35,37,37,38,38,39,39,40,40,43,43,45,45,47,47,48,48],"right_children":[2,4,6,8,10,12,14,16,-1,18,20,22,24,26,28,30,-1,32,-1,34,-1,36,-1,38,40,42,44,46,48,-1,50,-1,-1,52,-1,54,-1,56,58,60,62,-1,-1,64,-1,66,-1,68,70,-1,-1,-1,-1,-1,-1,-1,-1,-1,-1,-1,-1,-1,-1,-1,-1,-1,-1,-1,-1,-1,-1],"split_conditions":[-2.635484E0,-1.4160796E0,1.620582E0,5.767415E-1,1.8959074E0,-1.7859976E0,-7.233957E-1,2.1790798E0,-4.943007E-2,-8.509862E-1,1.74E1,-1.1814422E-1,-9.853448E-1,-1.5513968E-1,7.65E0,2.1755762E0,-3.161503E-2,-4.4512385E-1,-5.521846E-2,2.0129874E0,-5.3094078E-2,-1.7279367E-1,-5.709312E-2,-2.027623E0,2.4990346E0,-2.0208135E0,1.2329714E0,1.0939026E0,7.6474726E-1,8.145744E-2,-1.185995E0,7.882165E-2,-4.9904626E-2,2.0826507E-1,-5.097995E-2,2.2414032E-2,-5.676029E-2,-1.6137081E0,7.24873E-2,-8.069166E-1,2.9371366E-1,7.9904936E-2,-5.667107E-2,2.983501E0,-5.546799E-2,1.359267E-1,-5.626298E-2,-2.4690466E0,-1.2069566E0,7.852492E-2,-7.72591E-2,7.9535976E-2,-5.5129636E-2,8.16244E-2,-5.727343E-2,6.568584E-2,-5.730505E-2,8.545058E-2,-5.760461E-2,-3.7947483E-2,-5.33742E-2,-5.9825372E-2,5.9222233E-2,7.457023E-2,-5.9440177E-2,5.1219042E-2,-5.6741443E-2,2.4048302E-2,-5.648501E-2,8.097884E-2,-5.6761768E-2],"split_indices":[15,13,5,11,5,15,15,8,0,23,1,27,21,12,1,18,0,16,0,3,0,4,0,2,8,11,4,2,24,0,20,0,0,24,0,28,0,18,7,15,16,0,0,18,0,28,0,16,14,0,0,0,0,0,0,0,0,0,0,0,0,0,0,0,0,0,0,0,0,0,0],"split_type":[0,0,0,0,0,0,0,0,0,0,0,0,0,0,0,0,0,0,0,0,0,0,0,0,0,0,0,0,0,0,0,0,0,0,0,0,0,0,0,0,0,0,0,0,0,0,0,0,0,0,0,0,0,0,0,0,0,0,0,0,0,0,0,0,0,0,0,0,0,0,0],"sum_hessian":[3.0075805E4,7.9332827E3,2.2142521E4,7.399092E3,5.341909E2,1.9458148E4,2.6843723E3,7.3914097E3,7.682491E0,2.2107416E2,3.1311676E2,6.504687E2,1.880768E4,7.2931195E2,1.9550604E3,7.3903037E3,1.1056999E0,5.5405033E1,1.6566913E2,3.0079358E2,1.2323178E1,3.7555057E2,2.7491812E2,4.894756E2,1.8318205E4,1.8103186E2,5.482801E2,6.9770654E2,1.2573539E3,7.20855E3,1.817538E2,4.8430862E1,6.974169E0,2.9471548E2,6.0780888E0,3.0934848E2,6.62021E1,3.0255582E2,1.8691978E2,1.8081744E4,2.3646017E2,2.4488752E1,1.565431E2,5.152293E2,3.3050728E1,5.49183E2,1.4852351E2,1.1178197E3,1.3953413E2,1.7398311E2,7.7706933E0,2.907929E2,3.922601E0,2.68054E2,4.129449E1,2.6732279E1,2.7582352E2,1.4181433E2,4.5105442E1,2.172972E3,1.5908772E4,1.2240313E2,1.1405704E2,4.9470792E2,2.052143E1,4.5501242E2,9.4170586E1,5.729006E1,1.0605297E3,5.5513752E1,8.402038E1],"tree_param":{"num_deleted":"0","num_feature":"30","num_nodes":"71","size_leaf_vector":"1"}},{"base_weights":[-2.2459562E-1,1.5057075E0,-8.555078E-1,1.571366E0,5.888765E-1,-9.5278895E-1,-1.625805E-1,1.5740999E0,-4.8954125E-2,-5.0788265E-1,1.3471528E0,-2.0198568E-3,-9.864459E-1,7.0855445E-1,-4.9195656E-1,1.5745139E0,-3.113451E-2,1.2016653E0,-5.4907262E-2,-5.202278E-2,1.4483709E0,7.913355E-1,-5.6690898E-2,-1.7922692E-1,-1.0083708E0,-7.487771E-1,1.1736519E0,2.592604E-1,-9.242044E-1,1.5792919E0,1.3782829E0,-5.0946917E-2,7.623669E-2,-5.0947454E-2,1.495288E0,1.1829652E0,-5.6321293E-2,-9.156339E-1,9.63715E-1,-1.0447308E0,-6.5265256E-1,7.710396E-2,-5.6282092E-2,1.3156295E0,-5.5035103E-2,1.1313481E0,-3.0727392E-1,-1.037003E0,-3.5164535E-2,-3.7998356E-2,7.898679E-2,7.5992845E-2,-7.459715E-2,7.647098E-2,-5.9632517E-2,7.6121226E-2,-5.6767322E-2,6.29942E-2,-5.690051E-2,-5.5976372E-2,8.07645E-2,-3.7066147E-2,-5.421042E-2,2.6997505E-2,-4.7901627E-2,7.086598E-2,-5.870986E-2,8.623911E-2,-5.597811E-2,3.825673E-2,-4.105683E-2,2.25177E-2,-5.613E-2,7.6580904E-2,-5.6338347E-2],"categories":[],"categories_nodes":[],"categories_segments":[],"categories_sizes":[],"default_left":[0,0,0,0,0,0,0,0,0,0,0,0,0,0,0,0,0,0,0,0,0,0,0,0,0,0,0,0,0,0,0,0,0,0,0,0,0,0,0,0,0,0,0,0,0,0,0,0,0,0,0,0,0,0,0,0,0,0,0,0,0,0,0,0,0,0,0,0,0,0,0,0,0,0,0],"id":15,"left_children":[1,3,5,7,9,11,13,15,-1,17,19,21,23,25,27,29,-1,31,-1,-1,33,35,-1,37,39,41,43,45,47,49,51,-1,-1,-1,53,55,-1,57,59,61,63,-1,-1,65,-1,67,69,71,73,-1,-1,-1,-1,-1,-1,-1,-1,-1,-1,-1,-1,-1,-1,-1,-1,-1,-1,-1,-1,-1,-1,-1,-1,-1,-1],"loss_changes":[3.17729E4,4.6722266E2,1.4375303E3,5.213867E1,4.3423297E2,5.9846484E2,7.540713E2,7.5742188E0,0E0,2.1708339E2,7.6059814E1,5.7593646E2,3.1949414E2,4.8965408E2,6.193756E2,4.6191406E0,0E0,4.126667E1,0E0,0E0,3.5830566E1,2.845456E2,0E0,4.0391034E2,2.2675977E2,1.5288335E2,1.7809332E2,3.4480737E2,1.2135864E2,8.541016E0,7.5468475E1,0E0,0E0,0E0,2.8543274E1,2.4854593E2,0E0,1.4256555E2,2.5715726E2,1.9026953E2,5.9540283E2,0E0,0E0,1.3214813E2,0E0,3.6895956E2,2.3396347E2,1.3726562E2,2.366035E2,0E0,0E0,0E0,0E0,0E0,0E0,0E0,0E0,0E0,0E0,0E0,0E0,0E0,0E0,0E0,0E0,0E0,0E0,0E0,0E0,0E0,0E0,0E0,0E0,0E0,0E0],"parents":[2147483647,0,0,1,1,2,2,3,3,4,4,5,5,6,6,7,7,9,9,10,10,11,11,12,12,13,13,14,14,15,15,17,17,20,20,21,21,23,23,24,24,25,25,26,26,27,27,28,28,29,29,30,30,34,34,35,35,37,37,38,38,39,39,40,40,43,43,45,45,46,46,47,47,48,48],"right_children":[2,4,6,8,10,12,14,16,-1,18,20,22,24,26,28,30,-1,32,-1,-1,34,36,-1,38,40,42,44,46,48,50,52,-1,-1,-1,54,56,-1,58,60,62,64,-1,-1,66,-1,68,70,72,74,-1,-1,-1,-1,-1,-1,-1,-1,-1,-1,-1,-1,-1,-1,-1,-1,-1,-1,-1,-1,-1,-1,-1,-1,-1,-1],"split_conditions":[-2.635484E0,-1.4160796E0,1.620582E0,5.767415E-1,1.8959074E0,-1.7859976E0,-7.233957E-1,2.1790798E0,-4.8954125E-2,-8.509862E-1,9.718627E-1,-1.1814422E-1,-9.853448E-1,-1.5513968E-1,7.65E0,2.1755762E0,-3.113451E-2,1.5712748E0,-5.4907262E-2,-5.202278E-2,5.0176145E-3,-1.7279367E-1,-5.6690898E-2,-2.027623E0,1.0663408E0,-2.0208135E0,1.2329714E0,-6.994265E-1,7.6474726E-1,4.6018746E-2,1.12E0,-5.0946917E-2,7.623669E-2,-5.0947454E-2,4.227811E-2,2.2414032E-2,-5.6321293E-2,-1.6137081E0,-2.1592973E-1,-8.069166E-1,-5.0172395E-1,7.710396E-2,-5.6282092E-2,2.983501E0,-5.5035103E-2,-4.0749885E-2,7.5E-1,-2.4690466E0,-1.2069566E0,-3.7998356E-2,7.898679E-2,7.5992845E-2,-7.459715E-2,7.647098E-2,-5.9632517E-2,7.6121226E-2,-5.6767322E-2,6.29942E-2,-5.690051E-2,-5.5976372E-2,8.07645E-2,-3.7066147E-2,-5.421042E-2,2.6997505E-2,-4.7901627E-2,7.086598E-2,-5.870986E-2,8.623911E-2,-5.597811E-2,3.825673E-2,-4.105683E-2,2.25177E-2,-5.613E-2,7.6580904E-2,-5.6338347E-2],"split_indices":[15,13,5,11,5,15,15,8,0,23,19,27,21,12,1,18,0,19,0,0,29,4,0,2,8,11,4,13,24,12,1,0,0,0,22,28,0,18,5,15,27,0,0,18,0,19,1,16,14,0,0,0,0,0,0,0,0,0,0,0,0,0,0,0,0,0,0,0,0,0,0,0,0,0,0],"split_type":[0,0,0,0,0,0,0,0,0,0,0,0,0,0,0,0,0,0,0,0,0,0,0,0,0,0,0,0,0,0,0,0,0,0,0,0,0,0,0,0,0,0,0,0,0,0,0,0,0,0,0,0,0,0,0,0,0,0,0,0,0,0,0,0,0,0,0,0,0,0,0,0,0,0,0],"sum_hessian":[2.9102697E4,7.775814E3,2.1326883E4,7.2555005E3,5.203138E2,1.870104E4,2.625843E3,7.248114E3,7.38655E0,2.1282181E2,3.0749194E2,6.3941394E2,1.8061625E4,7.201189E2,1.9057241E3,7.2470312E3,1.0826466E0,5.435637E1,1.5846544E2,1.2128002E1,2.9536395E2,3.7608844E2,2.6332553E2,4.778429E2,1.7583783E4,1.7407239E2,5.460465E2,6.9619147E2,1.2095327E3,7.067888E3,1.7914282E2,6.6301637E0,4.7726204E1,5.125056E0,2.902389E2,3.1262903E2,6.34594E1,2.9072513E2,1.8711775E2,1.5951365E4,1.6324174E3,2.4154146E1,1.4991823E2,5.1435895E2,3.1687527E1,2.7377E2,4.2242148E2,1.0732017E3,1.36331E2,1.0161667E0,7.066872E3,1.7117032E2,7.972509E0,2.8702524E2,3.2136502E0,2.7299847E2,3.9630566E1,2.6528631E1,2.641965E2,4.4410023E1,1.4270773E2,1.8388108E3,1.4112555E4,3.326293E2,1.299788E3,4.945896E2,1.976938E1,2.1683656E2,5.6933437E1,1.366824E2,2.8573907E2,5.8169556E1,1.0150321E3,5.581555E1,8.051545E1],"tree_param":{"num_deleted":"0","num_feature":"30","num_nodes":"75","size_leaf_vector":"1"}},{"base_weights":[-2.2123231E-1,1.4634712E0,-8.450919E-1,1.5267831E0,5.746603E-1,-1.0115782E0,-4.383289E-1,1.5294199E0,-4.848746E-2,-5.0226295E-1,1.3053335E0,-2.155228E-1,-1.0375879E0,5.5941904E-1,-7.041537E-1,1.5298268E0,-3.0665202E-2,1.1656277E0,-5.4612882E-2,1.4028747E0,-5.2473105E-2,6.066066E-1,-5.6073178E-2,-1.0666173E0,-6.1182195E-1,1.375599E0,-6.976455E-2,1.6428617E0,-7.5699466E-1,1.5346689E0,1.3321733E0,7.401378E-2,-4.9221195E-2,-5.6064118E-2,1.4529141E0,-5.811712E-2,1.5724913E0,-1.0738244E0,-1.7741105E-1,3.4783638E-1,-5.521695E-2,2.1829963E0,6.399283E-1,-5.6059897E-2,5.34577E-1,8.6726344E-1,8.622792E0,-3.122405E-1,-9.6966714E-1,-3.733256E-2,7.675536E-2,7.3369294E-2,-7.4829735E-2,-4.9415078E-2,7.463803E-2,-5.7475578E-2,9.8343894E-2,-5.3964403E-2,-3.8548124E-3,-5.4537177E-2,2.640932E-1,2.3974864E-1,-9.819671E-3,6.1301757E-2,1.9830708E-1,5.4058816E-2,-5.85714E-2,1.7895019E-2,2.9958093E-1,-5.4340668E-2,7.8513466E-2,4.9188635E-1,-2.9618436E-2,4.3027993E-2,-2.75742E-2,2.9981893E-3,-5.2250188E-2],"categories":[],"categories_nodes":[],"categories_segments":[],"categories_sizes":[],"default_left":[0,0,0,0,0,0,0,0,0,0,0,0,0,0,0,0,0,0,0,0,0,0,0,0,0,0,0,0,0,0,0,0,0,0,0,0,0,0,0,0,0,0,0,0,0,0,0,0,0,0,0,0,0,0,0,0,0,0,0,0,0,0,0,0,0,0,0,0,0,0,0,0,0,0,0,0,0],"id":16,"left_children":[1,3,5,7,9,11,13,15,-1,17,19,21,23,25,27,29,-1,31,-1,33,-1,35,-1,37,39,41,43,45,47,49,51,-1,-1,-1,53,-1,55,57,59,61,-1,63,65,-1,67,69,71,73,75,-1,-1,-1,-1,-1,-1,-1,-1,-1,-1,-1,-1,-1,-1,-1,-1,-1,-1,-1,-1,-1,-1,-1,-1,-1,-1,-1,-1],"loss_changes":[2.9578482E4,4.2708496E2,1.3903516E3,4.821289E1,3.9985406E2,3.0149023E2,1.5828165E3,7.1210938E0,0E0,2.0378244E2,7.095941E1,3.4500842E2,1.7375098E2,6.449441E2,5.855679E2,4.7421875E0,0E0,3.8163315E1,0E0,3.8374573E1,0E0,4.1704263E2,0E0,8.4458984E1,4.2719583E2,3.2331885E2,4.5177927E2,5.558471E2,4.3560425E2,8.05957E0,6.994815E1,0E0,0E0,0E0,2.9266663E1,0E0,1.7146078E2,7.126758E1,5.41249E2,7.4402985E2,0E0,4.391759E2,2.3102116E2,0E0,4.3322125E2,1.3188445E2,1.2108264E2,4.1919138E2,2.4186328E2,0E0,0E0,0E0,0E0,0E0,0E0,0E0,0E0,0E0,0E0,0E0,0E0,0E0,0E0,0E0,0E0,0E0,0E0,0E0,0E0,0E0,0E0,0E0,0E0,0E0,0E0,0E0,0E0],"parents":[2147483647,0,0,1,1,2,2,3,3,4,4,5,5,6,6,7,7,9,9,10,10,11,11,12,12,13,13,14,14,15,15,17,17,19,19,21,21,23,23,24,24,25,25,26,26,27,27,28,28,29,29,30,30,34,34,36,36,37,37,38,38,39,39,41,41,42,42,44,44,45,45,46,46,47,47,48,48],"right_children":[2,4,6,8,10,12,14,16,-1,18,20,22,24,26,28,30,-1,32,-1,34,-1,36,-1,38,40,42,44,46,48,50,52,-1,-1,-1,54,-1,56,58,60,62,-1,64,66,-1,68,70,72,74,76,-1,-1,-1,-1,-1,-1,-1,-1,-1,-1,-1,-1,-1,-1,-1,-1,-1,-1,-1,-1,-1,-1,-1,-1,-1,-1,-1,-1],"split_conditions":[-2.635484E0,-1.4160796E0,7.413282E-1,5.767415E-1,1.8959074E0,-1.7859976E0,-8.069166E-1,2.1790798E0,-4.848746E-2,-8.509862E-1,1.74E1,-1.1814422E-1,3.0477E2,-4.480329E-1,-2.150176E0,2.1755762E0,-3.0665202E-2,-4.4512385E-1,-5.4612882E-2,6.728097E-2,-5.2473105E-2,-3.685977E-1,-5.6073178E-2,1.2022438E0,-3.3360067E-1,5.8371E4,7.848433E-1,6.835641E-1,-1.1611094E-1,4.6018746E-2,-1.185995E0,7.401378E-2,-4.9221195E-2,-5.6064118E-2,4.169859E-3,-5.811712E-2,-6.815673E-1,1.7888348E0,1.3465661E0,-1.3385137E0,-5.521695E-2,4.5398E4,-8.570009E-1,-5.6059897E-2,-8.2587683E-1,4.210454E0,7.02037E-1,-1.1673477E0,-2.0220034E0,-3.733256E-2,7.675536E-2,7.3369294E-2,-7.4829735E-2,-4.9415078E-2,7.463803E-2,-5.7475578E-2,9.8343894E-2,-5.3964403E-2,-3.8548124E-3,-5.4537177E-2,2.640932E-1,2.3974864E-1,-9.819671E-3,6.1301757E-2,1.9830708E-1,5.4058816E-2,-5.85714E-2,1.7895019E-2,2.9958093E-1,-5.4340668E-2,7.8513466E-2,4.9188635E-1,-2.9618436E-2,4.3027993E-2,-2.75742E-2,2.9981893E-3,-5.2250188E-2],"split_indices":[15,13,5,11,5,15,15,8,0,23,1,27,1,13,17,18,0,16,0,12,0,2,0,27,27,0,18,25,9,12,20,0,0,0,29,0,7,23,13,14,0,0,13,0,15,3,25,14,13,0,0,0,0,0,0,0,0,0,0,0,0,0,0,0,0,0,0,0,0,0,0,0,0,0,0,0,0],"split_type":[0,0,0,0,0,0,0,0,0,0,0,0,0,0,0,0,0,0,0,0,0,0,0,0,0,0,0,0,0,0,0,0,0,0,0,0,0,0,0,0,0,0,0,0,0,0,0,0,0,0,0,0,0,0,0,0,0,0,0,0,0,0,0,0,0,0,0,0,0,0,0,0,0,0,0,0,0],"sum_hessian":[2.8140508E4,7.6042476E3,2.0536262E4,7.097929E3,5.063187E2,1.4570946E4,5.9653145E3,7.090827E3,7.1016107E0,2.0479234E2,3.0152637E2,4.613092E2,1.4109638E4,1.254724E3,4.7105903E3,7.089767E3,1.0601315E0,5.3258133E1,1.5153421E2,2.899214E2,1.1604986E1,2.4201456E2,2.1929463E2,1.3207615E4,9.02022E2,5.4567957E2,7.090445E2,1.03057E2,4.607533E3,6.913631E3,1.7613638E2,4.6730858E1,6.527276E0,5.2195845E0,2.8470178E2,8.540253E1,1.5661203E2,1.310122E4,1.0639541E2,3.060277E2,5.9599426E2,2.592194E2,2.8646017E2,2.584821E2,4.5056238E2,9.376252E1,9.294483E0,1.4913002E3,3.1162332E3,1.0007992E0,6.91263E3,1.685606E2,7.575785E0,4.190103E0,2.805117E2,1.9577316E1,1.3703471E2,1.3029714E4,7.1505775E1,9.183216E1,1.4563248E1,3.2515877E1,2.7351184E2,1.697872E2,8.943218E1,2.3067151E2,5.5788666E1,4.3746463E2,1.3097726E1,2.466306E1,6.909946E1,8.152141E0,1.1423429E0,2.5223193E2,1.2390682E3,2.1247836E2,2.9037546E3],"tree_param":{"num_deleted":"0","num_feature":"30","num_nodes":"77","size_leaf_vector":"1"}},{"base_weights":[-2.1786076E-1,1.4254197E0,-8.3377624E-1,1.4866443E0,5.6172484E-1,-1.0032674E0,-4.2718077E-1,1.4891886E0,-4.8696708E-2,-4.9702758E-1,1.2678424E0,-2.1076186E-1,-1.0296874E0,5.3102183E-1,-6.899177E-1,-3.0845156E-2,1.48961E0,1.1332927E0,-5.4334104E-2,1.361818E0,-5.1982876E-2,5.7677186E-1,-5.5725813E-2,-1.0597789E0,-5.968977E-1,1.2967484E0,-6.7553945E-2,1.1998811E0,-7.538644E-1,1.4900045E0,-2.9930612E-2,-5.038586E-2,1.4375566E0,1.4137279E0,-5.050401E-2,-5.7629198E-2,1.4674466E0,-1.0672171E0,-1.7288417E-1,3.2385382E-1,-5.4929793E-2,1.7193811E0,1.0497536E-1,-5.571748E-2,5.004897E-1,1.7792169E0,-5.535875E-2,-8.4479696E-1,1.6678599E-1,7.472998E-2,6.510962E-2,-3.2289445E-2,7.488693E-2,7.2579965E-2,-5.452494E-2,9.1620624E-2,-5.6307346E-2,-3.900647E-2,-5.44023E-2,-5.4242022E-2,2.1036577E-1,1.9114026E-1,-9.388088E-3,2.1133232E-1,7.332221E-2,7.618809E-2,-6.0056627E-2,-5.6271374E-2,5.224819E-2,9.376084E-2,-4.8045553E-2,4.8602633E-3,-4.8039403E-2,-2.2576486E-3,2.879661E-1],"categories":[],"categories_nodes":[],"categories_segments":[],"categories_sizes":[],"default_left":[0,0,0,0,0,0,0,0,0,0,0,0,0,0,0,0,0,0,0,0,0,0,0,0,0,0,0,0,0,0,0,0,0,0,0,0,0,0,0,0,0,0,0,0,0,0,0,0,0,0,0,0,0,0,0,0,0,0,0,0,0,0,0,0,0,0,0,0,0,0,0,0,0,0,0],"id":17,"left_children":[1,3,5,7,9,11,13,15,-1,17,19,21,23,25,27,-1,29,31,-1,33,-1,35,-1,37,39,41,43,45,47,49,-1,-1,51,53,-1,-1,55,57,59,61,-1,63,65,-1,67,69,-1,71,73,-1,-1,-1,-1,-1,-1,-1,-1,-1,-1,-1,-1,-1,-1,-1,-1,-1,-1,-1,-1,-1,-1,-1,-1,-1,-1],"loss_changes":[2.755477E4,3.9164648E2,1.3642383E3,4.4838867E1,3.6913705E2,2.9240332E2,1.4675499E3,7.0625E0,0E0,1.915093E2,6.559973E1,3.224428E2,1.755E2,5.7515845E2,5.5367456E2,0E0,6.5966797E0,3.6015602E1,0E0,3.649829E1,0E0,3.7484323E2,0E0,8.322754E1,4.0755426E2,2.7710858E2,4.1985406E2,2.025867E2,3.7059326E2,4.0273438E0,0E0,0E0,6.8440933E0,2.8057312E1,0E0,0E0,1.5384113E2,7.412891E1,4.2940182E2,5.5865576E2,0E0,2.5149316E2,2.708723E2,0E0,4.0644263E2,3.3461792E1,0E0,4.4014746E2,4.7272156E2,0E0,0E0,0E0,0E0,0E0,0E0,0E0,0E0,0E0,0E0,0E0,0E0,0E0,0E0,0E0,0E0,0E0,0E0,0E0,0E0,0E0,0E0,0E0,0E0,0E0,0E0],"parents":[2147483647,0,0,1,1,2,2,3,3,4,4,5,5,6,6,7,7,9,9,10,10,11,11,12,12,13,13,14,14,16,16,17,17,19,19,21,21,23,23,24,24,25,25,26,26,27,27,28,28,29,29,32,32,33,33,36,36,37,37,38,38,39,39,41,41,42,42,44,44,45,45,47,47,48,48],"right_children":[2,4,6,8,10,12,14,16,-1,18,20,22,24,26,28,-1,30,32,-1,34,-1,36,-1,38,40,42,44,46,48,50,-1,-1,52,54,-1,-1,56,58,60,62,-1,64,66,-1,68,70,-1,72,74,-1,-1,-1,-1,-1,-1,-1,-1,-1,-1,-1,-1,-1,-1,-1,-1,-1,-1,-1,-1,-1,-1,-1,-1,-1,-1],"split_conditions":[-2.635484E0,-1.4160796E0,7.413282E-1,1.2646441E0,1.8959074E0,-1.7859976E0,-8.069166E-1,-7.0277715E-1,-4.8696708E-2,-8.509862E-1,1.74E1,-1.1814422E-1,3.0477E2,-4.480329E-1,-4.9403014E0,-3.0845156E-2,2.1790798E0,1.5712748E0,-5.4334104E-2,2.0129874E0,-5.1982876E-2,-3.685977E-1,-5.5725813E-2,1.2022438E0,-3.3360067E-1,9.741E4,7.848433E-1,-4.3405853E-2,1.278442E0,2.1755762E0,-2.9930612E-2,-5.038586E-2,-1.9257814E0,2.0826507E-1,-5.050401E-2,-5.7629198E-2,-2.893668E-3,-1.3300555E0,1.3465661E0,-1.3385137E0,-5.4929793E-2,-9.0848476E-1,-1.2679973E0,-5.571748E-2,2.5300577E-1,1.12E0,-5.535875E-2,-3.5429665E-1,2.0099978E0,7.472998E-2,6.510962E-2,-3.2289445E-2,7.488693E-2,7.2579965E-2,-5.452494E-2,9.1620624E-2,-5.6307346E-2,-3.900647E-2,-5.44023E-2,-5.4242022E-2,2.1036577E-1,1.9114026E-1,-9.388088E-3,2.1133232E-1,7.332221E-2,7.618809E-2,-6.0056627E-2,-5.6271374E-2,5.224819E-2,9.376084E-2,-4.8045553E-2,4.8602633E-3,-4.8039403E-2,-2.2576486E-3,2.879661E-1],"split_indices":[15,13,5,10,5,15,15,12,0,23,1,27,1,13,8,0,8,19,0,3,0,2,0,27,27,0,18,13,8,18,0,0,4,24,0,0,16,7,13,14,0,25,19,0,19,1,0,21,16,0,0,0,0,0,0,0,0,0,0,0,0,0,0,0,0,0,0,0,0,0,0,0,0,0,0],"split_type":[0,0,0,0,0,0,0,0,0,0,0,0,0,0,0,0,0,0,0,0,0,0,0,0,0,0,0,0,0,0,0,0,0,0,0,0,0,0,0,0,0,0,0,0,0,0,0,0,0,0,0,0,0,0,0,0,0,0,0,0,0,0,0,0,0,0,0,0,0,0,0,0,0,0,0],"sum_hessian":[2.722258E4,7.4212236E3,1.9801355E4,6.929306E3,4.9191745E2,1.3974538E4,5.826818E3,6.922543E3,6.7632294E0,1.969327E2,2.9498474E2,4.5113324E2,1.3523404E4,1.2536672E3,4.5731504E3,1.0921793E0,6.921451E3,5.2063026E1,1.4486967E2,2.8383505E2,1.1149678E1,2.4126027E2,2.0987296E2,1.2642907E4,8.8049774E2,5.4952386E2,7.041434E2,1.4909932E2,4.4240513E3,6.9204297E3,1.0211726E0,6.190493E0,4.5872536E1,2.7815158E2,5.683483E0,8.191604E1,1.5934424E2,1.2537553E4,1.0535428E2,3.1067667E2,5.6982104E2,4.0533807E2,1.4418579E2,2.4735457E2,4.5678882E2,1.1935605E2,2.9743275E1,4.0264424E3,3.976088E2,6.748364E3,1.7206612E2,1.014726E0,4.485781E1,2.7442184E2,3.7297428E0,1.3994492E2,1.9399317E1,8.506949E2,1.1686857E4,8.7822075E1,1.75322E1,3.8806442E1,2.718702E2,3.5704357E1,3.696337E2,6.903187E1,7.515392E1,1.1432442E2,3.424644E2,1.1562094E2,3.735111E0,4.4144922E2,3.5849932E3,3.840466E2,1.3562193E1],"tree_param":{"num_deleted":"0","num_feature":"30","num_nodes":"75","size_leaf_vector":"1"}},{"base_weights":[-2.1467498E-1,1.3908795E0,-8.2301134E-1,1.4533992E0,5.9135014E-1,-9.9515754E-1,-4.1691777E-1,-4.980334E-2,1.4559561E0,-7.4264437E-1,1.1642567E0,-2.0626289E-1,-1.0219668E0,5.084965E-1,-6.758508E-1,-3.8093816E-2,1.4565469E0,6.825047E-2,-5.507028E-2,1.2643481E0,-6.436463E-2,5.498546E-1,-5.539761E-2,-1.0531348E0,-5.8232456E-1,1.2320026E0,-6.610399E-2,1.1610724E0,-7.387287E-1,7.285147E-2,-3.7433717E-2,1.3262019E0,-6.698885E-2,-5.7167377E-2,1.3759029E0,-1.0607919E0,-1.6834982E-1,3.0273908E-1,-5.4658886E-2,1.4152527E0,-5.975874E-2,-5.539409E-2,4.755916E-1,1.7125427E0,-5.491602E-2,-3.1689847E-1,-9.4471645E-1,6.8263546E-2,-5.340777E-2,-5.701701E-2,8.572733E-2,-3.825682E-2,-5.4127295E-2,-5.3961296E-2,1.7580469E-1,-1.9979887E-2,1.2348775E-1,6.476908E-2,2.535781E-1,-5.5897053E-2,4.9026627E-2,9.020936E-2,-4.740427E-2,-5.4970425E-2,5.733471E-3,1.1835505E-1,-4.8876915E-2],"categories":[],"categories_nodes":[],"categories_segments":[],"categories_sizes":[],"default_left":[0,0,0,0,0,0,0,0,0,0,0,0,0,0,0,0,0,0,0,0,0,0,0,0,0,0,0,0,0,0,0,0,0,0,0,0,0,0,0,0,0,0,0,0,0,0,0,0,0,0,0,0,0,0,0,0,0,0,0,0,0,0,0,0,0,0,0],"id":18,"left_children":[1,3,5,7,9,11,13,-1,15,17,19,21,23,25,27,-1,29,-1,-1,31,-1,33,-1,35,37,39,41,43,45,-1,-1,47,-1,-1,49,51,53,55,-1,57,-1,-1,59,61,-1,63,65,-1,-1,-1,-1,-1,-1,-1,-1,-1,-1,-1,-1,-1,-1,-1,-1,-1,-1,-1,-1],"loss_changes":[2.5702031E4,3.6058398E2,1.3336787E3,4.3450195E1,4.0293848E2,2.832295E2,1.3621238E3,0E0,9.889648E0,1.2148172E2,9.2032196E1,3.0176337E2,1.7698828E2,5.1685394E2,5.138037E2,0E0,8.21875E0,0E0,0E0,5.8874878E1,0E0,3.385393E2,0E0,8.180859E1,3.892867E2,2.4644708E2,3.9204144E2,1.8550671E2,3.7287012E2,0E0,0E0,3.3895813E1,0E0,0E0,1.4031842E2,7.6336914E1,3.5624658E2,4.813312E2,0E0,2.1788171E2,0E0,0E0,3.6892743E2,3.0690094E1,0E0,4.7648843E2,3.159204E2,0E0,0E0,0E0,0E0,0E0,0E0,0E0,0E0,0E0,0E0,0E0,0E0,0E0,0E0,0E0,0E0,0E0,0E0,0E0,0E0],"parents":[2147483647,0,0,1,1,2,2,3,3,4,4,5,5,6,6,8,8,9,9,10,10,11,11,12,12,13,13,14,14,16,16,19,19,21,21,23,23,24,24,25,25,26,26,27,27,28,28,31,31,34,34,35,35,36,36,37,37,39,39,42,42,43,43,45,45,46,46],"right_children":[2,4,6,8,10,12,14,-1,16,18,20,22,24,26,28,-1,30,-1,-1,32,-1,34,-1,36,38,40,42,44,46,-1,-1,48,-1,-1,50,52,54,56,-1,58,-1,-1,60,62,-1,64,66,-1,-1,-1,-1,-1,-1,-1,-1,-1,-1,-1,-1,-1,-1,-1,-1,-1,-1,-1,-1],"split_conditions":[-2.635484E0,-1.7696148E0,7.413282E-1,1.3868655E-1,1.7272661E0,-1.7859976E0,-8.069166E-1,-4.980334E-2,-4.8604634E-1,-1.5656409E0,1.0663408E0,-1.1814422E-1,3.0477E2,-4.480329E-1,-4.9403014E0,-3.8093816E-2,-1.7279367E-1,6.825047E-2,-5.507028E-2,6.867198E-1,-6.436463E-2,-3.685977E-1,-5.539761E-2,1.2022438E0,-3.3360067E-1,1.2456738E0,7.848433E-1,-4.3405853E-2,-1.1611094E-1,7.285147E-2,-3.7433717E-2,1.0114347E0,-6.698885E-2,-5.7167377E-2,-6.815673E-1,-1.3300555E0,1.3465661E0,7.07946E-1,-5.4658886E-2,1.2392639E0,-5.975874E-2,-5.539409E-2,2.5300577E-1,1.12E0,-5.491602E-2,-5.414681E-1,-2.150176E0,6.8263546E-2,-5.340777E-2,-5.701701E-2,8.572733E-2,-3.825682E-2,-5.4127295E-2,-5.3961296E-2,1.7580469E-1,-1.9979887E-2,1.2348775E-1,6.476908E-2,2.535781E-1,-5.5897053E-2,4.9026627E-2,9.020936E-2,-4.740427E-2,-5.4970425E-2,5.733471E-3,1.1835505E-1,-4.8876915E-2],"split_indices":[15,11,5,12,5,15,15,0,5,12,8,27,1,13,8,0,4,0,0,14,0,2,0,27,27,2,18,13,9,0,0,16,0,0,7,7,13,15,0,2,0,0,19,1,0,7,17,0,0,0,0,0,0,0,0,0,0,0,0,0,0,0,0,0,0,0,0],"split_type":[0,0,0,0,0,0,0,0,0,0,0,0,0,0,0,0,0,0,0,0,0,0,0,0,0,0,0,0,0,0,0,0,0,0,0,0,0,0,0,0,0,0,0,0,0,0,0,0,0,0,0,0,0,0,0,0,0,0,0,0,0,0,0,0,0,0,0],"sum_hessian":[2.631254E4,7.229847E3,1.9082693E4,6.7047476E3,5.2509955E2,1.3400617E4,5.6820757E3,6.586583E0,6.698161E3,1.5767111E2,3.674284E2,4.407155E2,1.2959901E4,1.2420575E3,4.440018E3,1.4407359E0,6.69672E3,2.2526636E1,1.3514449E2,3.5348083E2,1.3947594E1,2.3991957E2,2.0079593E2,1.2100642E4,8.5925995E2,5.4928424E2,6.9277325E2,1.4637366E2,4.2936445E3,6.695594E3,1.1258922E0,3.45759E2,7.721823E0,7.854236E1,1.6137723E2,1.1996622E4,1.04019196E2,3.1460593E2,5.44654E2,5.1111252E2,3.8171715E1,2.3663553E2,4.5613776E2,1.17850784E2,2.8522867E1,1.4095822E3,2.8840625E3,3.406307E2,5.1282954E0,1.8861582E1,1.4251564E2,8.2468146E2,1.1171941E4,8.396763E1,2.0051573E1,2.3821523E2,7.639072E1,4.9619907E2,1.4913454E1,1.094651E2,3.4667264E2,1.142378E2,3.6129897E0,5.0051364E2,9.090685E2,2.7604189E1,2.8564583E3],"tree_param":{"num_deleted":"0","num_feature":"30","num_nodes":"67","size_leaf_vector":"1"}},{"base_weights":[-2.1161656E-1,1.3592587E0,-8.1246215E-1,1.4174073E0,5.3435564E-1,-9.873827E-1,-4.0685228E-1,1.4198226E0,-4.7170173E-2,-4.9007496E-1,1.1978929E0,-2.0195018E-1,-1.0145823E0,4.865636E-1,-6.6224724E-1,1.4252496E0,1.2043234E0,1.0804152E0,-5.385324E-2,1.2887272E0,-5.150642E-2,5.250664E-1,-5.508722E-2,-1.0548644E0,-6.558937E-1,7.3449695E-1,-5.5300932E-2,-5.843875E-2,-8.527008E-1,-3.9438207E-2,7.128923E-2,1.347116E0,-7.259651E-2,1.3636531E0,-5.035914E-2,-5.577117E-2,1.3374288E0,-5.6729686E-2,1.2941266E0,-4.0823644E-1,-1.0685179E0,-1.0097759E0,6.855092E-1,1.5422348E0,2.5342497E-1,-6.533822E-1,9.674076E-1,5.309731E-1,-9.2181224E-1,7.092631E-2,-8.2836054E-2,7.129275E-2,-2.8865019E-2,6.877821E-2,-5.319343E-2,8.060895E-2,-5.582283E-2,-5.5364545E-2,5.560975E-2,-5.3853687E-2,-8.013142E-3,-5.494994E-2,-1.8768468E-3,1.3844797E-1,-3.0808037E-2,1.1139753E-1,-7.3562223E-3,-1.9615648E-2,4.98822E-2,-4.933992E-2,5.386889E-2,7.602664E-2,-5.5196386E-2,-5.4927018E-2,9.055536E-2,8.520089E-2,-4.7575947E-2],"categories":[],"categories_nodes":[],"categories_segments":[],"categories_sizes":[],"default_left":[0,0,0,0,0,0,0,0,0,0,0,0,0,0,0,0,0,0,0,0,0,0,0,0,0,0,0,0,0,0,0,0,0,0,0,0,0,0,0,0,0,0,0,0,0,0,0,0,0,0,0,0,0,0,0,0,0,0,0,0,0,0,0,0,0,0,0,0,0,0,0,0,0,0,0,0,0],"id":19,"left_children":[1,3,5,7,9,11,13,15,-1,17,19,21,23,25,27,29,31,33,-1,35,-1,37,-1,39,41,43,-1,45,47,-1,-1,49,-1,51,-1,-1,53,-1,55,57,59,61,63,65,67,69,71,73,75,-1,-1,-1,-1,-1,-1,-1,-1,-1,-1,-1,-1,-1,-1,-1,-1,-1,-1,-1,-1,-1,-1,-1,-1,-1,-1,-1,-1],"loss_changes":[2.3995898E4,3.3663574E2,1.3043096E3,3.880371E1,3.1652203E2,2.742666E2,1.2650005E3,5.959961E0,0E0,1.7024686E2,5.8473328E1,2.8270267E2,1.7872461E2,4.8757578E2,4.9568604E2,8.698242E0,6.555945E1,3.1175049E1,0E0,3.3309998E1,0E0,3.0679846E2,0E0,9.811035E1,5.970885E2,4.1434198E2,0E0,6.3216504E2,3.138694E2,0E0,0E0,3.6596527E1,0E0,6.2324677E0,0E0,0E0,2.5896454E1,0E0,1.27487366E2,2.482727E2,8.476758E1,8.622882E1,7.1456274E2,4.6160388E2,3.2242618E2,3.7934283E2,4.3731244E2,3.285121E2,2.4511743E2,0E0,0E0,0E0,0E0,0E0,0E0,0E0,0E0,0E0,0E0,0E0,0E0,0E0,0E0,0E0,0E0,0E0,0E0,0E0,0E0,0E0,0E0,0E0,0E0,0E0,0E0,0E0,0E0],"parents":[2147483647,0,0,1,1,2,2,3,3,4,4,5,5,6,6,7,7,9,9,10,10,11,11,12,12,13,13,14,14,15,15,16,16,17,17,19,19,21,21,23,23,24,24,25,25,27,27,28,28,31,31,33,33,36,36,38,38,39,39,40,40,41,41,42,42,43,43,44,44,45,45,46,46,47,47,48,48],"right_children":[2,4,6,8,10,12,14,16,-1,18,20,22,24,26,28,30,32,34,-1,36,-1,38,-1,40,42,44,-1,46,48,-1,-1,50,-1,52,-1,-1,54,-1,56,58,60,62,64,66,68,70,72,74,76,-1,-1,-1,-1,-1,-1,-1,-1,-1,-1,-1,-1,-1,-1,-1,-1,-1,-1,-1,-1,-1,-1,-1,-1,-1,-1,-1,-1],"split_conditions":[-2.635484E0,-1.4160796E0,7.413282E-1,5.767415E-1,1.8959074E0,-1.7859976E0,-8.069166E-1,2.1755762E0,-4.7170173E-2,-8.509862E-1,1.74E1,-1.1814422E-1,1.0663408E0,1.2329714E0,-5.725717E-1,1.2833329E-1,1.12E0,-9.684647E-1,-5.385324E-2,6.728097E-2,-5.150642E-2,-3.685977E-1,-5.508722E-2,-9.853448E-1,1.5378694E-1,5.8371E4,-5.5300932E-2,5.47024E-1,7.5E-1,-3.9438207E-2,7.128923E-2,4.77456E0,-7.259651E-2,8.29E0,-5.035914E-2,-5.577117E-2,5.2214855E-1,-5.6729686E-2,-2.893668E-3,-1.7444316E0,1.2022438E0,8.8129526E-1,-7.0378727E-1,-2.1621619E-1,2.1870494E0,2.5466412E-1,4.9030712E-1,9.419254E-2,-2.150176E0,7.092631E-2,-8.2836054E-2,7.129275E-2,-2.8865019E-2,6.877821E-2,-5.319343E-2,8.060895E-2,-5.582283E-2,-5.5364545E-2,5.560975E-2,-5.3853687E-2,-8.013142E-3,-5.494994E-2,-1.8768468E-3,1.3844797E-1,-3.0808037E-2,1.1139753E-1,-7.3562223E-3,-1.9615648E-2,4.98822E-2,-4.933992E-2,5.386889E-2,7.602664E-2,-5.5196386E-2,-5.4927018E-2,9.055536E-2,8.520089E-2,-4.7575947E-2],"split_indices":[15,13,5,11,5,15,15,18,0,23,1,27,8,4,13,12,1,14,0,12,0,2,0,21,5,0,0,23,1,0,0,5,0,1,0,0,16,0,16,2,27,16,11,14,5,29,19,29,17,0,0,0,0,0,0,0,0,0,0,0,0,0,0,0,0,0,0,0,0,0,0,0,0,0,0,0,0],"split_type":[0,0,0,0,0,0,0,0,0,0,0,0,0,0,0,0,0,0,0,0,0,0,0,0,0,0,0,0,0,0,0,0,0,0,0,0,0,0,0,0,0,0,0,0,0,0,0,0,0,0,0,0,0,0,0,0,0,0,0,0,0,0,0,0,0,0,0,0,0,0,0,0,0,0,0,0,0],"sum_hessian":[2.542116E4,7.032871E3,1.8388287E4,6.569089E3,4.6378253E2,1.2846681E4,5.541607E3,6.562773E3,6.3157516E0,1.824149E2,2.8136765E2,4.3027347E2,1.2416407E4,1.2317671E3,4.30984E3,6.3960835E3,1.6668965E2,4.940127E1,1.3301363E2,2.7075098E2,1.0616674E1,2.3821596E2,1.920575E2,1.1161039E4,1.2553683E3,1.0663036E3,1.6546346E2,1.0337563E3,3.2760835E3,1.1887957E0,6.3948945E3,1.5865373E2,8.035915E0,4.3804783E1,5.5964913E0,4.9408894E0,2.658101E2,7.528116E1,1.629348E2,2.3142963E2,1.0929609E4,9.935121E2,2.6185617E2,3.971941E2,6.691095E2,6.545251E2,3.792312E2,1.5553076E2,3.1205527E3,1.5548515E2,3.1685824E0,4.2701702E1,1.1030796E0,2.6207516E2,3.734907E0,1.4423557E2,1.869923E1,1.5872415E2,7.2705475E1,1.0827429E4,1.02180664E2,9.098814E2,8.3630714E1,1.0025731E2,1.6159888E2,2.822921E2,1.14901985E2,3.5851178E2,3.1059775E2,5.4916327E2,1.0536182E2,2.9951517E2,7.971601E1,6.849003E1,8.704074E1,3.427822E1,3.0862747E3],"tree_param":{"num_deleted":"0","num_feature":"30","num_nodes":"77","size_leaf_vector":"1"}},{"base_weights":[-2.087419E-1,1.3306965E0,-8.0216616E-1,1.3874103E0,5.2389735E-1,-9.7978514E-1,-3.9722037E-1,1.3897685E0,-4.6729766E-2,-4.859672E-1,1.168404E0,-1.9785173E-1,-1.0073577E0,4.6452516E-1,-6.4986765E-1,1.3952767E0,1.1722438E0,1.0559105E0,-5.3613193E-2,-5.054584E-2,1.2574782E0,5.02385E-1,-5.4793395E-2,-1.0491768E0,-6.415678E-1,6.974805E-1,-5.4992046E-2,-1.8777716E-1,-8.96856E-1,-3.8757663E-2,6.9790475E-2,1.3120028E0,-7.062622E-2,-4.8702408E-2,6.6807784E-2,-5.0177343E-2,1.3025403E0,-5.631432E-2,1.2213966E0,-3.983927E-1,-1.0632052E0,-1.0012137E0,6.314121E-1,1.4450862E0,2.4268459E-1,-5.2207005E-1,9.219918E-1,1.7861319E0,-9.303441E-1,6.914233E-2,-7.948453E-2,-5.868714E-2,6.6935174E-2,-5.6621294E-2,7.5994626E-2,-5.505532E-2,5.1913746E-2,-5.3606022E-2,-7.664833E-3,-5.4690517E-2,-1.7864065E-3,1.1921556E-1,-3.0326793E-2,1.0372328E-1,-7.0086992E-3,-1.3472152E-2,5.6777257E-2,4.3981027E-2,-3.870588E-2,1.997396E-2,1.4637752E-1,-5.4273378E-2,2.6598045E-1,8.2273185E-3,-5.0898917E-2],"categories":[],"categories_nodes":[],"categories_segments":[],"categories_sizes":[],"default_left":[0,0,0,0,0,0,0,0,0,0,0,0,0,0,0,0,0,0,0,0,0,0,0,0,0,0,0,0,0,0,0,0,0,0,0,0,0,0,0,0,0,0,0,0,0,0,0,0,0,0,0,0,0,0,0,0,0,0,0,0,0,0,0,0,0,0,0,0,0,0,0,0,0,0,0],"id":20,"left_children":[1,3,5,7,9,11,13,15,-1,17,19,21,23,25,27,29,31,33,-1,-1,35,37,-1,39,41,43,-1,45,47,-1,-1,49,-1,-1,-1,-1,51,-1,53,55,57,59,61,63,65,67,69,71,73,-1,-1,-1,-1,-1,-1,-1,-1,-1,-1,-1,-1,-1,-1,-1,-1,-1,-1,-1,-1,-1,-1,-1,-1,-1,-1],"loss_changes":[2.2427094E4,3.1181445E2,1.2740693E3,3.624121E1,2.9359915E2,2.65333E2,1.1768601E3,6.0039062E0,0E0,1.6032764E2,5.4677307E1,2.6512076E2,1.8130273E2,4.4746494E2,4.7681946E2,8.263672E0,6.099008E1,2.9187458E1,0E0,0E0,2.8282562E1,2.7901288E2,0E0,9.702637E1,5.605845E2,3.6260498E2,0E0,5.410147E2,2.4634448E2,0E0,0E0,3.423062E1,0E0,0E0,0E0,0E0,2.4856323E1,0E0,1.1762012E2,2.3015167E2,8.459375E1,8.525256E1,5.874351E2,4.029402E2,3.0434897E2,3.964956E2,3.5266608E2,3.4989655E2,2.583086E2,0E0,0E0,0E0,0E0,0E0,0E0,0E0,0E0,0E0,0E0,0E0,0E0,0E0,0E0,0E0,0E0,0E0,0E0,0E0,0E0,0E0,0E0,0E0,0E0,0E0,0E0],"parents":[2147483647,0,0,1,1,2,2,3,3,4,4,5,5,6,6,7,7,9,9,10,10,11,11,12,12,13,13,14,14,15,15,16,16,17,17,20,20,21,21,23,23,24,24,25,25,27,27,28,28,31,31,36,36,38,38,39,39,40,40,41,41,42,42,43,43,44,44,45,45,46,46,47,47,48,48],"right_children":[2,4,6,8,10,12,14,16,-1,18,20,22,24,26,28,30,32,34,-1,-1,36,38,-1,40,42,44,-1,46,48,-1,-1,50,-1,-1,-1,-1,52,-1,54,56,58,60,62,64,66,68,70,72,74,-1,-1,-1,-1,-1,-1,-1,-1,-1,-1,-1,-1,-1,-1,-1,-1,-1,-1,-1,-1,-1,-1,-1,-1,-1,-1],"split_conditions":[-2.635484E0,-1.4160796E0,7.413282E-1,5.767415E-1,1.8959074E0,-1.7859976E0,-8.069166E-1,2.1755762E0,-4.6729766E-2,-8.509862E-1,9.718627E-1,-1.1814422E-1,1.0663408E0,1.2329714E0,-1.1611094E-1,1.2833329E-1,1.12E0,1.5712748E0,-5.3613193E-2,-5.054584E-2,5.0176145E-3,-3.685977E-1,-5.4793395E-2,-9.853448E-1,1.5378694E-1,5.8371E4,-5.4992046E-2,7.575455E-1,-2.150176E0,-3.8757663E-2,6.9790475E-2,4.77456E0,-7.062622E-2,-4.8702408E-2,6.6807784E-2,-5.0177343E-2,-2.0028193E0,-5.631432E-2,-6.815673E-1,-1.7444316E0,1.2022438E0,8.8129526E-1,-5.6053513E-1,-2.1621619E-1,2.366E2,1.29E0,1.2640411E0,6.835641E-1,-2.0220034E0,6.914233E-2,-7.948453E-2,-5.868714E-2,6.6935174E-2,-5.6621294E-2,7.5994626E-2,-5.505532E-2,5.1913746E-2,-5.3606022E-2,-7.664833E-3,-5.4690517E-2,-1.7864065E-3,1.1921556E-1,-3.0326793E-2,1.0372328E-1,-7.0086992E-3,-1.3472152E-2,5.6777257E-2,4.3981027E-2,-3.870588E-2,1.997396E-2,1.4637752E-1,-5.4273378E-2,2.6598045E-1,8.2273185E-3,-5.0898917E-2],"split_indices":[15,13,5,11,5,15,15,18,0,23,19,27,8,4,9,12,1,19,0,0,29,2,0,21,5,0,0,23,17,0,0,5,0,0,0,0,20,0,7,2,27,16,14,14,1,1,4,25,13,0,0,0,0,0,0,0,0,0,0,0,0,0,0,0,0,0,0,0,0,0,0,0,0,0,0],"split_type":[0,0,0,0,0,0,0,0,0,0,0,0,0,0,0,0,0,0,0,0,0,0,0,0,0,0,0,0,0,0,0,0,0,0,0,0,0,0,0,0,0,0,0,0,0,0,0,0,0,0,0,0,0,0,0,0,0,0,0,0,0,0,0,0,0,0,0,0,0,0,0,0,0,0,0],"sum_hessian":[2.4547486E4,6.829477E3,1.7718008E4,6.3802583E3,4.4921875E2,1.2314954E4,5.4030547E3,6.3741865E3,6.072116E0,1.751016E2,2.7411716E2,4.1973822E2,1.1895216E4,1.2247523E3,4.1783022E3,6.2114834E3,1.6270322E2,4.801856E1,1.2708303E2,1.0357509E1,2.6375964E2,2.3608737E2,1.8365085E2,1.0673138E4,1.2220785E3,1.0664915E3,1.582609E2,1.456011E3,2.722291E3,1.1672919E0,6.210316E3,1.5482425E2,7.878964E0,5.5246925E0,4.2493866E1,4.7383585E0,2.590213E2,7.213166E1,1.6395572E2,2.2583853E2,1.0447299E4,9.5303723E2,2.6904126E2,4.025657E2,6.639258E2,1.119359E3,3.3665207E2,3.29146E1,2.6893765E3,1.5164532E2,3.178931E0,3.2754836E0,2.557458E2,1.8137407E1,1.458183E2,1.5181514E2,7.402339E1,1.0345754E4,1.01544785E2,8.695122E2,8.352502E1,1.1097616E2,1.5806511E2,2.879395E2,1.146262E2,4.2236407E2,2.4156168E2,1.7022292E2,9.4913605E2,2.680227E2,6.8629364E1,1.8540136E1,1.4374463E1,1.9923853E2,2.490138E3],"tree_param":{"num_deleted":"0","num_feature":"30","num_nodes":"75","size_leaf_vector":"1"}},{"base_weights":[-2.0585102E-1,1.3045284E0,-7.9140687E-1,1.3631024E0,5.5195796E-1,-9.723351E-1,-3.8686383E-1,-4.832957E-2,1.3654773E0,-7.282393E-1,1.0766152E0,-9.896834E-1,2.8192344E-1,4.4337073E-1,-6.358929E-1,-3.739327E-2,1.3660474E0,6.359171E-2,-5.4418236E-2,1.171993E0,-6.2805474E-2,-2.828899E-1,-1.0135906E0,1.2829266E0,-5.842649E-2,6.622445E-1,-5.469929E-2,-4.35475E-2,-8.299441E-1,6.8325855E-2,-3.7050877E-2,1.231255E0,-6.43384E-2,-8.0569965E-1,9.3611413E-1,-1.0216649E0,2.0700388E-1,1.9106461E0,-5.5145632E-2,1.3571441E0,2.320921E-1,-6.3007784E-1,9.129606E-1,5.040507E-1,-9.0041566E-1,6.3375555E-2,-5.2432384E-2,4.4348966E-2,-5.5952866E-2,8.495711E-2,-5.4138828E-2,-3.780616E-2,-5.2624907E-2,2.254927E-1,-5.4047603E-2,1.056472E-1,-4.6698965E-2,9.689774E-2,-6.6768355E-3,-1.9254535E-2,4.707334E-2,-4.8477154E-2,5.0834555E-2,7.0401184E-2,-5.4821957E-2,-5.44617E-2,8.196139E-2,6.850433E-2,-4.6563055E-2],"categories":[],"categories_nodes":[],"categories_segments":[],"categories_sizes":[],"default_left":[0,0,0,0,0,0,0,0,0,0,0,0,0,0,0,0,0,0,0,0,0,0,0,0,0,0,0,0,0,0,0,0,0,0,0,0,0,0,0,0,0,0,0,0,0,0,0,0,0,0,0,0,0,0,0,0,0,0,0,0,0,0,0,0,0,0,0,0,0],"id":21,"left_children":[1,3,5,7,9,11,13,-1,15,17,19,21,23,25,27,-1,29,-1,-1,31,-1,33,35,37,-1,39,-1,41,43,-1,-1,45,-1,47,49,51,53,55,-1,